{"learner":{"attributes":{"scikit_learn":"{\"_estimator_type\": \"regressor\"}"},"feature_names":["temperature_2m_mean","precipitation_sum","wind_speed_10m_max","wind_direction_10m_dominant"],"feature_types":["float","float","float","float"],"gradient_booster":{"model":{"gbtree_model_param":{"num_parallel_tree":"1","num_trees":"100"},"iteration_indptr":[0,1,2,3,4,5,6,7,8,9,10,11,12,13,14,15,16,17,18,19,20,21,22,23,24,25,26,27,28,29,30,31,32,33,34,35,36,37,38,39,40,41,42,43,44,45,46,47,48,49,50,51,52,53,54,55,56,57,58,59,60,61,62,63,64,65,66,67,68,69,70,71,72,73,74,75,76,77,78,79,80,81,82,83,84,85,86,87,88,89,90,91,92,93,94,95,96,97,98,99,100],"tree_info":[0,0,0,0,0,0,0,0,0,0,0,0,0,0,0,0,0,0,0,0,0,0,0,0,0,0,0,0,0,0,0,0,0,0,0,0,0,0,0,0,0,0,0,0,0,0,0,0,0,0,0,0,0,0,0,0,0,0,0,0,0,0,0,0,0,0,0,0,0,0,0,0,0,0,0,0,0,0,0,0,0,0,0,0,0,0,0,0,0,0,0,0,0,0,0,0,0,0,0,0],"trees":[{"base_weights":[-6.3100856E-7,4.433805E0,-4.7161655E0,-2.0343223E0,5.523938E0,3.232941E0,-6.244079E0,1.4172278E-1,-7.651353E0,7.141619E0,6.068346E-1,1.2583779E1,8.583395E-1,-4.420782E0,-8.693779E0,2.2735243E0,-3.4286742E0,-8.332983E0,1.4991608E-1,8.752332E0,4.2069817E0,3.1201787E0,-3.2048657E0,1.6013788E1,3.8176122E0,4.4456687E0,-2.0559072E0,-2.2627733E0,-5.8168325E0,-5.551199E0,-1.02057495E1,7.0537597E-1,1.3493655E1,-5.22394E0,8.089195E0,-5.031349E0,-1.0094929E1,4.7156096E0,-2.3015862E0,7.2760434E0,1.0685407E1,3.3756003E0,1.5624901E1,2.6110067E0,1.3803481E1,-3.4706569E0,3.6656094E0,1.7987995E1,7.8034816E0,8.37491E0,-2.135504E0,8.505334E0,2.3191907E0,-5.0873876E0,4.532306E0,4.4507904E0,-3.8081155E0,-3.8733559E0,-7.1910768E0,-5.9214005E0,3.887479E0,-8.884517E0,-1.2040126E1,2.8424706E0,-4.6083602E-1,-1.9125211E0,5.7773166E0,-2.1454852E0,3.1019866E-1,5.465609E0,1.0093489E0,-2.8101838E0,-4.2616498E-1,-3.218086E0,-3.1252098E-1,3.3121102E0,1.3738127E0,1.4409848E0,3.6767027E0,1.337222E0,-9.1060764E-1,-8.3439076E-1,5.0405955E0,1.4972057E0,-3.794801E-1,6.87479E-1,5.3849745E0,-5.7742834E-1,-2.066632E0,3.1148164E0,6.314703E0,4.4974826E-2,5.3874793E0,6.560927E-2,2.909349E0,-2.512521E0,9.2341393E-1,1.6874703E0,5.324975E0,-1.0926927E-1,1.4382511E0,4.725251E-2,-2.4890933E0,5.3925574E-1,3.626759E0,5.804975E0,7.1197593E-1,-1.1976086E0,1.598414E0,1.2653217E-1,-1.4630162E0,-2.3147662E0,-6.403425E-1,-9.2776525E-1,-2.2191365E0,-2.8696017E0,2.3839016E0,-3.8083036E0,-1.7942599E0],"categories":[],"categories_nodes":[],"categories_segments":[],"categories_sizes":[],"default_left":[0,0,0,0,0,0,0,0,0,0,0,0,0,0,0,0,0,0,0,0,0,0,0,0,0,0,0,0,0,0,0,0,0,0,0,0,0,0,0,0,0,0,0,0,0,0,0,0,0,0,0,0,0,0,0,0,0,0,0,0,0,0,0,0,0,0,0,0,0,0,0,0,0,0,0,0,0,0,0,0,0,0,0,0,0,0,0,0,0,0,0,0,0,0,0,0,0,0,0,0,0,0,0,0,0,0,0,0,0,0,0,0,0,0,0,0,0,0,0],"id":0,"left_children":[1,3,5,7,9,11,13,15,17,19,21,23,25,27,29,31,33,35,37,39,41,43,45,47,49,51,53,55,57,59,61,63,65,67,69,71,73,-1,-1,75,77,79,81,83,85,87,-1,89,91,93,95,97,99,101,103,105,107,109,111,113,-1,115,117,-1,-1,-1,-1,-1,-1,-1,-1,-1,-1,-1,-1,-1,-1,-1,-1,-1,-1,-1,-1,-1,-1,-1,-1,-1,-1,-1,-1,-1,-1,-1,-1,-1,-1,-1,-1,-1,-1,-1,-1,-1,-1,-1,-1,-1,-1,-1,-1,-1,-1,-1,-1,-1,-1,-1,-1],"loss_changes":[5.0143516E4,8.726424E3,1.41333125E4,2.1889854E3,8.411322E3,4.163647E3,4.3164336E3,9.9727435E2,2.6712842E2,3.725754E3,2.5295698E3,1.0814512E3,1.5877485E3,1.676956E3,1.9152148E3,1.433258E3,1.0554615E3,2.1680444E2,7.29478E2,1.3862422E3,2.643168E3,8.288612E2,4.728485E2,2.9726953E2,3.4344617E2,5.673041E2,1.700709E3,2.320144E3,8.8022266E2,1.0154868E3,5.692246E2,1.4495052E3,1.2680156E3,5.2611584E2,2.737152E2,2.685044E2,1.5475854E2,0E0,0E0,2.933874E3,1.973168E3,1.8583501E3,4.5837842E2,1.4175072E3,2.929989E2,5.362822E2,0E0,2.7033105E2,5.4134973E2,7.340915E1,2.209606E2,5.1261194E2,3.0725116E2,9.776765E2,5.362646E2,1.2541243E3,3.2539673E2,6.1832666E2,5.089746E2,5.4069385E2,0E0,1.9781719E3,3.7598047E2,0E0,0E0,0E0,0E0,0E0,0E0,0E0,0E0,0E0,0E0,0E0,0E0,0E0,0E0,0E0,0E0,0E0,0E0,0E0,0E0,0E0,0E0,0E0,0E0,0E0,0E0,0E0,0E0,0E0,0E0,0E0,0E0,0E0,0E0,0E0,0E0,0E0,0E0,0E0,0E0,0E0,0E0,0E0,0E0,0E0,0E0,0E0,0E0,0E0,0E0,0E0,0E0,0E0,0E0,0E0,0E0],"parents":[2147483647,0,0,1,1,2,2,3,3,4,4,5,5,6,6,7,7,8,8,9,9,10,10,11,11,12,12,13,13,14,14,15,15,16,16,17,17,18,18,19,19,20,20,21,21,22,22,23,23,24,24,25,25,26,26,27,27,28,28,29,29,30,30,31,31,32,32,33,33,34,34,35,35,36,36,39,39,40,40,41,41,42,42,43,43,44,44,45,45,47,47,48,48,49,49,50,50,51,51,52,52,53,53,54,54,55,55,56,56,57,57,58,58,59,59,61,61,62,62],"right_children":[2,4,6,8,10,12,14,16,18,20,22,24,26,28,30,32,34,36,38,40,42,44,46,48,50,52,54,56,58,60,62,64,66,68,70,72,74,-1,-1,76,78,80,82,84,86,88,-1,90,92,94,96,98,100,102,104,106,108,110,112,114,-1,116,118,-1,-1,-1,-1,-1,-1,-1,-1,-1,-1,-1,-1,-1,-1,-1,-1,-1,-1,-1,-1,-1,-1,-1,-1,-1,-1,-1,-1,-1,-1,-1,-1,-1,-1,-1,-1,-1,-1,-1,-1,-1,-1,-1,-1,-1,-1,-1,-1,-1,-1,-1,-1,-1,-1,-1,-1],"split_conditions":[2.2282002E2,4.5293816E1,1.3684735E1,1.9483284E1,1.9862555E2,1.0495713E1,2.8215475E2,5.797751E0,1.85E1,1.7E0,1.836353E1,3.3234738E2,4.1185837E0,1E-1,1.687398E1,3.9498336E0,1.8360249E1,2.1650938E1,4.0399995E-1,1.5226764E1,1.9070665E1,2.2697752E1,1.35E1,8.618585E0,7.748334E-1,1.1928989E1,1.72915E1,2.416226E2,2.4321715E2,1.9756083E1,4.912333E0,1.1252519E1,8.969996E0,1.7114204E1,1.8764414E1,2.049156E1,4.3674377E1,4.7156096E0,-2.3015862E0,8.926917E0,3.1644173E0,2.4336637E1,6.722798E1,1.3931081E1,1.9983575E2,3.6999998E0,3.6656094E0,-4.8980837E0,9.300001E0,3.3694168E2,9.493584E0,1.1753877E1,3.002615E2,1.0364417E1,2.8E0,-1.6105833E0,2.1183165E1,1.5876775E1,1.6797749E1,-2.6474997E-1,3.887479E0,4.487334E0,1.5851916E1,2.8424706E0,-4.6083602E-1,-1.9125211E0,5.7773166E0,-2.1454852E0,3.1019866E-1,5.465609E0,1.0093489E0,-2.8101838E0,-4.2616498E-1,-3.218086E0,-3.1252098E-1,3.3121102E0,1.3738127E0,1.4409848E0,3.6767027E0,1.337222E0,-9.1060764E-1,-8.3439076E-1,5.0405955E0,1.4972057E0,-3.794801E-1,6.87479E-1,5.3849745E0,-5.7742834E-1,-2.066632E0,3.1148164E0,6.314703E0,4.4974826E-2,5.3874793E0,6.560927E-2,2.909349E0,-2.512521E0,9.2341393E-1,1.6874703E0,5.324975E0,-1.0926927E-1,1.4382511E0,4.725251E-2,-2.4890933E0,5.3925574E-1,3.626759E0,5.804975E0,7.1197593E-1,-1.1976086E0,1.598414E0,1.2653217E-1,-1.4630162E0,-2.3147662E0,-6.403425E-1,-9.2776525E-1,-2.2191365E0,-2.8696017E0,2.3839016E0,-3.8083036E0,-1.7942599E0],"split_indices":[3,3,2,2,3,2,3,0,1,1,2,3,0,1,2,0,0,2,0,2,0,0,1,0,0,2,0,3,3,0,0,2,3,2,0,2,3,0,0,0,0,2,3,0,3,1,0,0,1,3,0,2,3,0,1,0,0,2,0,0,0,0,0,0,0,0,0,0,0,0,0,0,0,0,0,0,0,0,0,0,0,0,0,0,0,0,0,0,0,0,0,0,0,0,0,0,0,0,0,0,0,0,0,0,0,0,0,0,0,0,0,0,0,0,0,0,0,0,0],"split_type":[0,0,0,0,0,0,0,0,0,0,0,0,0,0,0,0,0,0,0,0,0,0,0,0,0,0,0,0,0,0,0,0,0,0,0,0,0,0,0,0,0,0,0,0,0,0,0,0,0,0,0,0,0,0,0,0,0,0,0,0,0,0,0,0,0,0,0,0,0,0,0,0,0,0,0,0,0,0,0,0,0,0,0,0,0,0,0,0,0,0,0,0,0,0,0,0,0,0,0,0,0,0,0,0,0,0,0,0,0,0,0,0,0,0,0,0,0,0,0],"sum_hessian":[2.396E3,1.235E3,1.161E3,1.78E2,1.057E3,1.87E2,9.74E2,1.29E2,4.9E1,7.95E2,2.62E2,3.7E1,1.5E2,5.6E2,4.14E2,8.1E1,4.8E1,4.5E1,4E0,5.12E2,2.83E2,1.58E2,1.04E2,2.6E1,1.1E1,6.7E1,8.3E1,2.21E2,3.39E2,1.36E2,2.78E2,7.2E1,9E0,4.2E1,6E0,1.7E1,2.8E1,1E0,3E0,2.93E2,2.19E2,2.65E2,1.8E1,1.52E2,6E0,1.03E2,1E0,2E1,6E0,6E0,5E0,2.2E1,4.5E1,5.7E1,2.6E1,4.1E1,1.8E2,1.42E2,1.97E2,1.34E2,2E0,1.65E2,1.13E2,1.4E1,5.8E1,2E0,7E0,3.2E1,1E1,1E0,5E0,7E0,1E1,2.6E1,2E0,1.21E2,1.72E2,4.7E1,1.72E2,2.27E2,3.8E1,1E0,1.7E1,9.4E1,5.8E1,2E0,4E0,7.2E1,3.1E1,7E0,1.3E1,4E0,2E0,1E0,5E0,2E0,3E0,1.8E1,4E0,2.2E1,2.3E1,2.2E1,3.5E1,2E1,6E0,4E0,3.7E1,1.77E2,3E0,2.7E1,1.15E2,1.78E2,1.9E1,4.7E1,8.7E1,1.59E2,6E0,1.01E2,1.2E1],"tree_param":{"num_deleted":"0","num_feature":"4","num_nodes":"119","size_leaf_vector":"1"}},{"base_weights":[2.2016319E-2,3.634245E0,-2.8300433E0,-1.0403847E0,4.834673E0,2.7210302E0,-3.9347477E0,6.539228E-1,-5.807808E0,6.2277017E0,2.297176E0,4.6999106E0,-6.0949665E-1,-1.1851504E0,-5.055257E0,1.0750936E1,5.5706874E-2,-1.2979543E0,-6.5176215E0,6.704111E0,-1.8569988E0,-6.456509E0,2.878817E0,7.75979E0,1.8659667E0,-6.612558E0,3.8133543E0,2.624715E0,-2.655417E0,-3.9025884E0,-6.098531E0,4.87594E0,1.4475743E1,-3.8203946E-1,5.741345E0,-4.8004217E0,4.0082684E0,-4.3900223E0,-7.718767E0,2.0425406E1,6.4462976E0,-8.61493E0,5.9257903E0,-4.0499673E0,-2.777778E0,4.425498E0,3.833925E-1,9.011489E0,1.8672341E0,1.1447666E1,6.9403297E-1,-3.4245243E0,-8.991758E0,2.2118778E0,1.4921957E1,5.0316157E0,-2.6945765E0,-3.0005474E0,5.410077E0,-2.6835606E0,-4.963496E0,-2.3049173E0,-6.7583017E0,1.7088581E0,2.3923875E-1,4.8587847E0,1.1392388E0,4.3997788E-1,-9.116545E-1,4.645768E0,9.654902E-1,1.3089181E-2,-2.314674E0,-4.7744942E-1,-1.8369242E0,-2.670923E0,-7.666791E-1,7.015778E0,2.0127168E0,1.2619615E0,2.2863905E0,-2.8754804E0,-1.5717304E0,4.8381E0,-8.00071E-1,-2.5098114E0,4.981329E-1,1.1318699E0,6.6208296E0,-1.5386012E-1,2.1124127E0,2.3364856E0,5.310882E0,1.2102058E0,-2.0100167E0,-8.84574E-2,5.565645E0,-1.5138809E-2,4.9780283E0,-2.0965767E0,1.2823073E0,-2.8411486E0,-9.3662494E-1,2.5066907E0,4.774088E-2,5.143266E0,5.715955E-1,2.4920893E0,-3.0774444E-1,-1.0872526E0,1.2064383E0,-5.526933E-1,-1.6993955E0,2.7621727E0,9.9296427E-1,-5.6396145E-1,-1.5320102E0,-1.5736614E0,-1.3786316E-1,-8.6709654E-1,3.1099832E0,-2.2606413E0,-1.3610369E0],"categories":[],"categories_nodes":[],"categories_segments":[],"categories_sizes":[],"default_left":[0,0,0,0,0,0,0,0,0,0,0,0,0,0,0,0,0,0,0,0,0,0,0,0,0,0,0,0,0,0,0,0,0,0,0,0,0,0,0,0,0,0,0,0,0,0,0,0,0,0,0,0,0,0,0,0,0,0,0,0,0,0,0,0,0,0,0,0,0,0,0,0,0,0,0,0,0,0,0,0,0,0,0,0,0,0,0,0,0,0,0,0,0,0,0,0,0,0,0,0,0,0,0,0,0,0,0,0,0,0,0,0,0,0,0,0,0,0,0,0,0,0,0],"id":1,"left_children":[1,3,5,7,9,11,13,15,17,19,21,23,25,27,29,31,33,35,37,39,41,43,45,47,49,51,53,55,57,59,61,63,65,67,69,71,-1,73,75,77,79,81,83,85,-1,87,89,91,93,95,97,99,101,103,105,107,109,111,113,115,117,119,121,-1,-1,-1,-1,-1,-1,-1,-1,-1,-1,-1,-1,-1,-1,-1,-1,-1,-1,-1,-1,-1,-1,-1,-1,-1,-1,-1,-1,-1,-1,-1,-1,-1,-1,-1,-1,-1,-1,-1,-1,-1,-1,-1,-1,-1,-1,-1,-1,-1,-1,-1,-1,-1,-1,-1,-1,-1,-1,-1,-1],"loss_changes":[2.4704877E4,5.9420566E3,8.227981E3,1.7566112E3,2.962E3,1.4725936E3,3.4385098E3,9.718724E2,1.7400635E2,2.1038848E3,1.5460386E3,1.1995344E3,2.2554702E3,1.8274629E3,9.3102344E2,1.2636609E2,3.8299008E2,5.2621716E2,9.1336426E1,1.6830879E3,1.6815126E3,9.065405E1,1.0867173E3,4.7734546E2,8.2300964E2,2.4226648E2,8.387126E2,1.1786317E3,6.7039075E2,4.781255E2,1.0231328E3,1.2184433E1,3.0340698E1,7.0679584E2,2.2060693E2,1.13306076E2,0E0,8.725525E1,1.6069116E2,2.0857031E2,1.2969629E3,5.451294E0,1.3578469E3,3.0964972E2,0E0,1.92024E3,6.540449E2,4.4685205E2,2.6835333E2,6.7286707E2,7.939184E2,4.9633997E2,2.6632812E1,5.535783E2,1.4089319E2,1.2584539E3,1.956279E2,6.8692346E2,4.927304E1,3.3899377E2,2.5418945E2,4.9729474E2,5.752656E2,0E0,0E0,0E0,0E0,0E0,0E0,0E0,0E0,0E0,0E0,0E0,0E0,0E0,0E0,0E0,0E0,0E0,0E0,0E0,0E0,0E0,0E0,0E0,0E0,0E0,0E0,0E0,0E0,0E0,0E0,0E0,0E0,0E0,0E0,0E0,0E0,0E0,0E0,0E0,0E0,0E0,0E0,0E0,0E0,0E0,0E0,0E0,0E0,0E0,0E0,0E0,0E0,0E0,0E0,0E0,0E0,0E0,0E0,0E0,0E0],"parents":[2147483647,0,0,1,1,2,2,3,3,4,4,5,5,6,6,7,7,8,8,9,9,10,10,11,11,12,12,13,13,14,14,15,15,16,16,17,17,18,18,19,19,20,20,21,21,22,22,23,23,24,24,25,25,26,26,27,27,28,28,29,29,30,30,31,31,32,32,33,33,34,34,35,35,37,37,38,38,39,39,40,40,41,41,42,42,43,43,45,45,46,46,47,47,48,48,49,49,50,50,51,51,52,52,53,53,54,54,55,55,56,56,57,57,58,58,59,59,60,60,61,61,62,62],"right_children":[2,4,6,8,10,12,14,16,18,20,22,24,26,28,30,32,34,36,38,40,42,44,46,48,50,52,54,56,58,60,62,64,66,68,70,72,-1,74,76,78,80,82,84,86,-1,88,90,92,94,96,98,100,102,104,106,108,110,112,114,116,118,120,122,-1,-1,-1,-1,-1,-1,-1,-1,-1,-1,-1,-1,-1,-1,-1,-1,-1,-1,-1,-1,-1,-1,-1,-1,-1,-1,-1,-1,-1,-1,-1,-1,-1,-1,-1,-1,-1,-1,-1,-1,-1,-1,-1,-1,-1,-1,-1,-1,-1,-1,-1,-1,-1,-1,-1,-1,-1,-1,-1,-1],"split_conditions":[2.0601141E2,5.3624268E1,1.3684735E1,1.9483284E1,1.7071652E2,1.0364417E1,2.4244489E2,9E0,6.5419188E0,2.373271E1,-4.230834E-1,1.1928989E1,1.6085249E1,1E-1,2.8215475E2,2.9633558E1,1.8360249E1,1.5300001E1,2.1746502E1,7.9932966E0,1.3769145E2,8.000001E-1,1.4045666E1,3.3234738E2,2.1737587E2,1.363525E1,1.0200001E1,1.4726917E1,1.8547752E1,1E-1,1.5226764E1,4E-1,7E-1,5.797751E0,1.8764414E1,-2.1126668E0,4.0082684E0,1.9108318E1,1.46102495E1,1.5520664E1,9.548709E1,4.8539996E0,1.5842862E2,1.624394E1,-2.777778E0,1.3699833E1,2.2203997E1,1.1753877E1,7.748334E-1,2.1216318E2,9.745667E0,1.2849528E1,6.9999995E0,2.2789922E2,1.2758432E1,1.8584509E1,2.3359337E2,2.7E0,1.4830076E1,2.378453E1,2.9179993E1,1.9756083E1,3.355641E2,1.7088581E0,2.3923875E-1,4.8587847E0,1.1392388E0,4.3997788E-1,-9.116545E-1,4.645768E0,9.654902E-1,1.3089181E-2,-2.314674E0,-4.7744942E-1,-1.8369242E0,-2.670923E0,-7.666791E-1,7.015778E0,2.0127168E0,1.2619615E0,2.2863905E0,-2.8754804E0,-1.5717304E0,4.8381E0,-8.00071E-1,-2.5098114E0,4.981329E-1,1.1318699E0,6.6208296E0,-1.5386012E-1,2.1124127E0,2.3364856E0,5.310882E0,1.2102058E0,-2.0100167E0,-8.84574E-2,5.565645E0,-1.5138809E-2,4.9780283E0,-2.0965767E0,1.2823073E0,-2.8411486E0,-9.3662494E-1,2.5066907E0,4.774088E-2,5.143266E0,5.715955E-1,2.4920893E0,-3.0774444E-1,-1.0872526E0,1.2064383E0,-5.526933E-1,-1.6993955E0,2.7621727E0,9.9296427E-1,-5.6396145E-1,-1.5320102E0,-1.5736614E0,-1.3786316E-1,-8.6709654E-1,3.1099832E0,-2.2606413E0,-1.3610369E0],"split_indices":[3,3,2,2,3,0,3,2,3,2,0,2,0,1,3,3,0,1,2,2,3,1,0,3,3,0,1,0,0,1,2,1,1,0,0,0,0,3,0,0,3,0,3,2,0,0,0,2,0,3,0,2,1,3,2,2,3,1,2,2,2,0,3,0,0,0,0,0,0,0,0,0,0,0,0,0,0,0,0,0,0,0,0,0,0,0,0,0,0,0,0,0,0,0,0,0,0,0,0,0,0,0,0,0,0,0,0,0,0,0,0,0,0,0,0,0,0,0,0,0,0,0,0],"split_type":[0,0,0,0,0,0,0,0,0,0,0,0,0,0,0,0,0,0,0,0,0,0,0,0,0,0,0,0,0,0,0,0,0,0,0,0,0,0,0,0,0,0,0,0,0,0,0,0,0,0,0,0,0,0,0,0,0,0,0,0,0,0,0,0,0,0,0,0,0,0,0,0,0,0,0,0,0,0,0,0,0,0,0,0,0,0,0,0,0,0,0,0,0,0,0,0,0,0,0,0,0,0,0,0,0,0,0,0,0,0,0,0,0,0,0,0,0,0,0,0,0,0,0],"sum_hessian":[2.396E3,1.057E3,1.339E3,2.16E2,8.41E2,2.22E2,1.117E3,1.6E2,5.6E1,5.42E2,2.99E2,1.39E2,8.3E1,3.24E2,7.93E2,8E0,1.52E2,8E0,4.8E1,5.12E2,3E1,1.8E1,2.81E2,6.6E1,7.3E1,3.5E1,4.8E1,9E1,2.34E2,3.79E2,4.14E2,4E0,4E0,1.42E2,1E1,7E0,1E0,1.9E1,2.9E1,8E0,5.04E2,1.6E1,1.4E1,1.1E1,7E0,1.73E2,1.08E2,5.4E1,1.2E1,7E0,6.6E1,1.6E1,1.9E1,4.3E1,5E0,6.2E1,2.8E1,2.25E2,9E0,1.78E2,2.01E2,6.2E1,3.52E2,3E0,1E0,3E0,1E0,8.4E1,5.8E1,1E0,9E0,3E0,4E0,8E0,1.1E1,2.3E1,6E0,6E0,2E0,1.75E2,3.29E2,1.1E1,5E0,6E0,8E0,6E0,5E0,1.68E2,5E0,9.6E1,1.2E1,4.9E1,5E0,1E1,2E0,3E0,4E0,6.4E1,2E0,1.1E1,5E0,1.7E1,2E0,1E1,3.3E1,4E0,1E0,4E1,2.2E1,2.5E1,3E0,1.58E2,6.7E1,2E0,7E0,1.35E2,4.3E1,1.89E2,1.2E1,6E1,2E0,2.59E2,9.3E1],"tree_param":{"num_deleted":"0","num_feature":"4","num_nodes":"123","size_leaf_vector":"1"}},{"base_weights":[3.4483206E-2,1.9804927E0,-2.6307378E0,2.9252408E0,-3.7211144E-1,1.5174346E0,-3.5482686E0,2.7023027E0,1.0480285E1,-3.7742443E0,6.7763484E-1,6.9619203E0,2.8147468E-1,-2.7448382E0,-4.857255E0,3.9865158E0,1.431053E0,1.160566E1,-2.7664006E0,-2.2219863E0,-6.2133827E0,2.2844734E1,1.564063E-1,8.702371E0,1.1604066E0,2.568762E0,-1.8921247E0,-2.8339558E0,2.0789258E0,-5.5720296E0,-1.8013515E0,4.5317845E0,-4.022095E0,2.5084033E0,-3.7634012E-1,3.9766393E0,7.016536E0,2.7755988E-1,-1.5224402E0,6.8388516E-1,-3.968285E0,-7.0929284E0,-6.334998E-1,-2.4242682E0,2.934582E1,2.3778803E0,-2.0959358E0,6.1696963E0,6.326896E0,-2.055107E0,4.4278183E0,3.6601868E0,-2.3702133E0,-3.5272965E0,5.834897E0,-2.3653915E0,-4.5053864E0,-1.2606509E0,-6.143819E0,2.1260352E-1,-5.9405894E0,-4.7356984E-1,1.5503335E0,-1.5549572E0,2.5627565E0,9.861952E-2,1.4880422E0,-1.9917732E-1,3.7761428E0,2.5064072E-1,3.538289E0,-3.2455152E-1,3.8447967E0,-2.4737144E0,-4.755872E-1,-6.975291E-1,-2.3761177E0,-1.3245417E0,7.0833135E-1,4.334013E0,1.182881E1,1.2304322E0,-8.030989E-1,3.573888E-1,-9.1240996E-1,-2.5227704E0,2.3875818E0,2.0788178E0,2.4578692E-1,4.0610424E-1,1.8475854E0,-2.1971438E0,-2.802888E-1,-1.8341205E-1,-1.6366708E0,2.8783212E0,-2.330536E-1,-4.8473483E-1,-1.1224519E0,-1.6661549E0,-5.2303106E-1,-2.2945285E0,2.7634063E-1,-1.8976108E0,-3.3118942E-1,1.5051087E0,-3.1962276E-1,-1.1151478E0,-2.226551E0],"categories":[],"categories_nodes":[],"categories_segments":[],"categories_sizes":[],"default_left":[0,0,0,0,0,0,0,0,0,0,0,0,0,0,0,0,0,0,0,0,0,0,0,0,0,0,0,0,0,0,0,0,0,0,0,0,0,0,0,0,0,0,0,0,0,0,0,0,0,0,0,0,0,0,0,0,0,0,0,0,0,0,0,0,0,0,0,0,0,0,0,0,0,0,0,0,0,0,0,0,0,0,0,0,0,0,0,0,0,0,0,0,0,0,0,0,0,0,0,0,0,0,0,0,0,0,0,0,0],"id":2,"left_children":[1,3,5,7,9,11,13,15,17,19,21,23,25,27,29,31,33,35,37,39,41,43,45,47,49,51,53,55,-1,57,59,61,63,65,67,-1,69,-1,-1,71,73,75,77,-1,79,81,83,85,-1,-1,87,89,91,93,95,97,99,101,103,105,107,-1,-1,-1,-1,-1,-1,-1,-1,-1,-1,-1,-1,-1,-1,-1,-1,-1,-1,-1,-1,-1,-1,-1,-1,-1,-1,-1,-1,-1,-1,-1,-1,-1,-1,-1,-1,-1,-1,-1,-1,-1,-1,-1,-1,-1,-1,-1,-1],"loss_changes":[1.2437358E4,3.0816367E3,3.8571323E3,1.637459E3,1.4239653E3,1.2362069E3,8.5850977E2,1.5648135E3,4.495161E2,3.4209412E2,3.5204348E3,3.33208E2,7.5557904E2,4.64521E2,6.7582764E2,2.1055796E3,9.4533386E2,1.03842285E2,3.0260267E1,3.0211057E2,1.7218604E2,1.6444915E3,1.5010361E3,6.855801E2,2.6590228E2,4.0757382E2,1.00611206E3,3.9032715E2,0E0,6.184155E2,5.0977368E2,1.7491504E3,4.9652762E2,1.6229398E3,6.8687E2,0E0,2.5593109E2,0E0,0E0,5.0656946E2,3.640725E2,1.0388574E2,7.837168E1,0E0,3.3179053E2,1.3265493E3,4.6669275E2,6.667746E2,0E0,0E0,5.7511826E1,3.431847E2,9.2738815E1,3.6213977E2,3.554498E2,4.0863672E2,3.1175122E2,4.3908496E2,1.9797461E2,2.632301E2,3.828076E1,0E0,0E0,0E0,0E0,0E0,0E0,0E0,0E0,0E0,0E0,0E0,0E0,0E0,0E0,0E0,0E0,0E0,0E0,0E0,0E0,0E0,0E0,0E0,0E0,0E0,0E0,0E0,0E0,0E0,0E0,0E0,0E0,0E0,0E0,0E0,0E0,0E0,0E0,0E0,0E0,0E0,0E0,0E0,0E0,0E0,0E0,0E0,0E0],"parents":[2147483647,0,0,1,1,2,2,3,3,4,4,5,5,6,6,7,7,8,8,9,9,10,10,11,11,12,12,13,13,14,14,15,15,16,16,17,17,18,18,19,19,20,20,21,21,22,22,23,23,24,24,25,25,26,26,27,27,29,29,30,30,31,31,32,32,33,33,34,34,36,36,39,39,40,40,41,41,42,42,44,44,45,45,46,46,47,47,50,50,51,51,52,52,53,53,54,54,55,55,56,56,57,57,58,58,59,59,60,60],"right_children":[2,4,6,8,10,12,14,16,18,20,22,24,26,28,30,32,34,36,38,40,42,44,46,48,50,52,54,56,-1,58,60,62,64,66,68,-1,70,-1,-1,72,74,76,78,-1,80,82,84,86,-1,-1,88,90,92,94,96,98,100,102,104,106,108,-1,-1,-1,-1,-1,-1,-1,-1,-1,-1,-1,-1,-1,-1,-1,-1,-1,-1,-1,-1,-1,-1,-1,-1,-1,-1,-1,-1,-1,-1,-1,-1,-1,-1,-1,-1,-1,-1,-1,-1,-1,-1,-1,-1,-1,-1,-1,-1],"split_conditions":[2.3739195E2,1.9296133E1,1.3854155E1,2.2697752E1,8.9873795E1,1.0495713E1,2.9792764E2,8.99775E0,2.2060132E2,2.3068108E1,1.0356005E2,8.618585E0,4.1185837E0,2.1183165E1,3.4582956E2,6.0000005E0,1.872901E2,1.7940782E2,1E-1,4.0399995E-1,1.4416499E1,-6.4808327E-1,2.0048473E2,6.829E0,1.08706665E1,3.3694168E2,1.8360249E1,2.4336637E1,2.0789258E0,-3.698083E0,2.0176065E1,2.4164106E1,7.251917E0,1.4440443E1,1.0900001E1,3.9766393E0,1.9983575E2,2.7755988E-1,-1.5224402E0,1.24833286E-1,2.049156E1,-3.387666E0,3.3000002E0,-2.4242682E0,2.1261345E1,1.3931081E1,2E-1,2.4690529E2,6.326896E0,-2.055107E0,1.72915E1,2.9399167E2,-7.212666E0,1.1251918E1,1.2979984E1,1.08706665E1,2.8820242E1,3.103076E2,1.04E1,-4.230834E-1,3E-1,-4.7356984E-1,1.5503335E0,-1.5549572E0,2.5627565E0,9.861952E-2,1.4880422E0,-1.9917732E-1,3.7761428E0,2.5064072E-1,3.538289E0,-3.2455152E-1,3.8447967E0,-2.4737144E0,-4.755872E-1,-6.975291E-1,-2.3761177E0,-1.3245417E0,7.0833135E-1,4.334013E0,1.182881E1,1.2304322E0,-8.030989E-1,3.573888E-1,-9.1240996E-1,-2.5227704E0,2.3875818E0,2.0788178E0,2.4578692E-1,4.0610424E-1,1.8475854E0,-2.1971438E0,-2.802888E-1,-1.8341205E-1,-1.6366708E0,2.8783212E0,-2.330536E-1,-4.8473483E-1,-1.1224519E0,-1.6661549E0,-5.2303106E-1,-2.2945285E0,2.7634063E-1,-1.8976108E0,-3.3118942E-1,1.5051087E0,-3.1962276E-1,-1.1151478E0,-2.226551E0],"split_indices":[3,2,2,0,3,2,3,0,3,2,3,0,0,0,3,1,3,3,1,0,0,0,3,0,0,3,0,2,0,0,2,3,0,2,1,0,3,0,0,0,2,0,1,0,2,0,1,3,0,0,0,3,0,0,2,0,2,3,1,0,1,0,0,0,0,0,0,0,0,0,0,0,0,0,0,0,0,0,0,0,0,0,0,0,0,0,0,0,0,0,0,0,0,0,0,0,0,0,0,0,0,0,0,0,0,0,0,0,0],"split_type":[0,0,0,0,0,0,0,0,0,0,0,0,0,0,0,0,0,0,0,0,0,0,0,0,0,0,0,0,0,0,0,0,0,0,0,0,0,0,0,0,0,0,0,0,0,0,0,0,0,0,0,0,0,0,0,0,0,0,0,0,0,0,0,0,0,0,0,0,0,0,0,0,0,0,0,0,0,0,0,0,0,0,0,0,0,0,0,0,0,0,0,0,0,0,0,0,0,0,0,0,0,0,0,0,0,0,0,0,0],"sum_hessian":[2.396E3,1.385E3,1.011E3,9.88E2,3.97E2,1.83E2,8.28E2,9.61E2,2.7E1,9.3E1,3.04E2,3.3E1,1.5E2,5.15E2,3.13E2,4.77E2,4.84E2,2.5E1,2E0,5.8E1,3.5E1,6E0,2.98E2,2.5E1,8E0,7.3E1,7.7E1,5.11E2,4E0,2.53E2,6E1,4.47E2,3E1,3.03E2,1.81E2,1.7E1,8E0,1E0,1E0,2.2E1,3.6E1,3E1,5E0,1E0,5E0,1.5E2,1.48E2,2.2E1,3E0,2E0,6E0,6E1,1.3E1,6.4E1,1.3E1,4.01E2,1.1E2,3E1,2.23E2,4.1E1,1.9E1,4.2E1,4.05E2,2.8E1,2E0,1.61E2,1.42E2,1.78E2,3E0,4E0,4E0,2E1,2E0,1.2E1,2.4E1,5E0,2.5E1,2E0,3E0,3E0,2E0,1.12E2,3.8E1,3.3E1,1.15E2,2E0,2E1,3E0,3E0,3.2E1,2.8E1,2E0,1.1E1,2.6E1,3.8E1,8E0,5E0,2.61E2,1.4E2,7.9E1,3.1E1,7E0,2.3E1,2.15E2,8E0,8E0,3.3E1,9E0,1E1],"tree_param":{"num_deleted":"0","num_feature":"4","num_nodes":"109","size_leaf_vector":"1"}},{"base_weights":[3.3818264E-2,1.9308163E0,-1.3727676E0,-8.8983077E-1,2.688766E0,9.366503E-1,-2.09866E0,5.4660444E0,-1.5628437E0,3.5305254E0,9.207674E-1,5.5937414E0,4.17789E-1,-1.3998559E0,-3.2597713E0,1.0552458E1,-1.17282175E-1,-1.8777233E0,2.687205E0,1.2260361E0,4.0330176E0,3.4119633E-1,8.726022E0,7.2733364E0,3.0667198E-1,1.7805166E0,-6.473009E-1,-2.1442851E-1,-2.074299E0,-2.805194E0,-5.031064E0,1.2374037E1,1.5702356E0,-3.0836022E0,5.8446784E0,-7.088804E-1,-3.861207E0,-1.430543E0,7.0093164E0,2.5871434E0,-3.952703E0,9.957712E0,3.8273745E0,6.4691896E0,-2.3482624E-1,-1.6464124E0,1.0845782E1,3.7396226E0,4.9776607E0,5.197695E0,-3.005122E0,1.378143E0,1.1644707E1,-1.6657379E0,2.7640862E0,2.4229114E0,-9.973435E-1,-2.1726067E0,6.4804296E0,-1.914502E0,-3.9940054E0,-2.7667813E0,-6.435772E0,1.2791255E0,4.715566E0,-2.9197026E-2,7.3580307E-1,-2.065725E0,7.3199487E-1,3.0502098E0,-1.0685072E0,-4.0828982E-1,1.1448097E0,-2.2090037E0,-3.6768788E-1,-2.079887E0,9.772488E-1,4.4325175E0,2.844024E-1,1.0334071E0,-2.0176306E0,-2.1563704E0,-1.0745056E-1,1.9118216E0,8.130502E-1,1.0448142E0,6.9681425E0,6.96553E-1,-4.61197E-1,-1.1217327E0,3.6202147E0,7.9639055E-2,1.9924881E0,-1.04610445E-2,2.086052E0,-1.4728956E0,1.6078758E-1,6.6251343E-1,-5.7958186E-1,6.284665E0,1.2244325E0,-8.694631E-2,-1.304533E0,1.7489398E-1,1.8644974E0,1.3035764E0,-5.309924E-1,-2.1807625E0,-1.560847E-1,-6.876622E-1,1.0392325E0,2.5143313E0,7.258833E-1,-7.967071E-1,1.6306804E0,-1.3713502E0,3.838816E-1,-1.3683851E0,2.350736E0,-2.0921426E-1,-2.0824783E0],"categories":[],"categories_nodes":[],"categories_segments":[],"categories_sizes":[],"default_left":[0,0,0,0,0,0,0,0,0,0,0,0,0,0,0,0,0,0,0,0,0,0,0,0,0,0,0,0,0,0,0,0,0,0,0,0,0,0,0,0,0,0,0,0,0,0,0,0,0,0,0,0,0,0,0,0,0,0,0,0,0,0,0,0,0,0,0,0,0,0,0,0,0,0,0,0,0,0,0,0,0,0,0,0,0,0,0,0,0,0,0,0,0,0,0,0,0,0,0,0,0,0,0,0,0,0,0,0,0,0,0,0,0,0,0,0,0,0,0,0,0],"id":3,"left_children":[1,3,5,7,9,11,13,15,17,19,21,23,25,27,29,31,33,35,37,39,41,43,45,47,49,51,53,55,57,59,61,63,65,67,69,71,73,75,77,79,81,-1,83,85,87,-1,89,-1,91,93,95,97,99,101,103,105,107,109,111,113,115,117,119,-1,-1,-1,-1,-1,-1,-1,-1,-1,-1,-1,-1,-1,-1,-1,-1,-1,-1,-1,-1,-1,-1,-1,-1,-1,-1,-1,-1,-1,-1,-1,-1,-1,-1,-1,-1,-1,-1,-1,-1,-1,-1,-1,-1,-1,-1,-1,-1,-1,-1,-1,-1,-1,-1,-1,-1,-1,-1],"loss_changes":[6.398543E3,2.1851973E3,2.3103528E3,9.367788E2,1.1947744E3,7.950698E2,8.4577246E2,5.9761884E2,2.6868173E2,6.261587E2,1.1777085E3,2.9081396E2,4.3367792E2,5.2402954E2,3.0232715E2,1.6055005E2,2.1255858E2,4.238449E2,2.5919022E2,7.080594E2,2.5533574E3,8.6280554E2,6.018695E2,2.359342E2,1.6140224E2,5.039029E2,5.8828375E2,4.9590674E2,3.656151E2,3.25896E2,2.3346533E2,1.7710486E2,4.6532717E0,1.8481299E2,1.9885612E2,3.5041724E2,6.1862683E2,2.2894827E2,3.1548703E2,6.540587E2,2.416352E2,0E0,1.2481758E3,9.7009796E2,7.495016E2,0E0,3.3019165E2,0E0,1.4721466E2,3.6992058E1,4.3095936E1,3.5328113E2,2.6634808E2,4.7859302E2,2.8992163E2,4.510001E2,5.497496E2,2.870404E2,1.8312485E1,1.0059367E3,4.1370825E2,6.445838E2,1.3448401E2,0E0,0E0,0E0,0E0,0E0,0E0,0E0,0E0,0E0,0E0,0E0,0E0,0E0,0E0,0E0,0E0,0E0,0E0,0E0,0E0,0E0,0E0,0E0,0E0,0E0,0E0,0E0,0E0,0E0,0E0,0E0,0E0,0E0,0E0,0E0,0E0,0E0,0E0,0E0,0E0,0E0,0E0,0E0,0E0,0E0,0E0,0E0,0E0,0E0,0E0,0E0,0E0,0E0,0E0,0E0,0E0,0E0,0E0],"parents":[2147483647,0,0,1,1,2,2,3,3,4,4,5,5,6,6,7,7,8,8,9,9,10,10,11,11,12,12,13,13,14,14,15,15,16,16,17,17,18,18,19,19,20,20,21,21,22,22,23,23,24,24,25,25,26,26,27,27,28,28,29,29,30,30,31,31,32,32,33,33,34,34,35,35,36,36,37,37,38,38,39,39,40,40,42,42,43,43,44,44,46,46,48,48,49,49,50,50,51,51,52,52,53,53,54,54,55,55,56,56,57,57,58,58,59,59,60,60,61,61,62,62],"right_children":[2,4,6,8,10,12,14,16,18,20,22,24,26,28,30,32,34,36,38,40,42,44,46,48,50,52,54,56,58,60,62,64,66,68,70,72,74,76,78,80,82,-1,84,86,88,-1,90,-1,92,94,96,98,100,102,104,106,108,110,112,114,116,118,120,-1,-1,-1,-1,-1,-1,-1,-1,-1,-1,-1,-1,-1,-1,-1,-1,-1,-1,-1,-1,-1,-1,-1,-1,-1,-1,-1,-1,-1,-1,-1,-1,-1,-1,-1,-1,-1,-1,-1,-1,-1,-1,-1,-1,-1,-1,-1,-1,-1,-1,-1,-1,-1,-1,-1,-1,-1,-1],"split_conditions":[2.0276057E2,5.3624268E1,1.4529915E1,1.0464797E1,2.1000001E0,9.6932955E0,2.7922925E2,4.4165E0,1.7743584E1,1.7373334E0,1.9070665E1,3.3234738E2,4.662334E0,1E-1,2.318579E1,9E-1,3.7677074E1,5.797751E0,4.198713E1,1.7442348E2,1.8310834E0,1.1252519E1,2.7E0,8.373386E0,-2.0064163E0,4.5935836E0,1.794775E1,1.6299694E1,1.3900001E1,5.797751E0,2E-1,2.635691E1,1.1560833E0,9.983106E0,1.6376917E1,3.9498336E0,1.2137332E1,1.9612333E1,1.8764414E1,1.4081669E0,1.94278E2,9.957712E0,8.99775E0,1.1165805E1,1.2928316E2,-1.6464124E0,6.722798E1,3.7396226E0,-2.2105832E0,-6.7480817E0,9.493584E0,1.4003028E1,2.1552835E2,2.716952E2,4E-1,1.5460248E1,1.687398E1,1.9756083E1,1.6300001E1,4.5935836E0,1.7426916E1,3.1311722E1,-3.1939166E0,1.2791255E0,4.715566E0,-2.9197026E-2,7.3580307E-1,-2.065725E0,7.3199487E-1,3.0502098E0,-1.0685072E0,-4.0828982E-1,1.1448097E0,-2.2090037E0,-3.6768788E-1,-2.079887E0,9.772488E-1,4.4325175E0,2.844024E-1,1.0334071E0,-2.0176306E0,-2.1563704E0,-1.0745056E-1,1.9118216E0,8.130502E-1,1.0448142E0,6.9681425E0,6.96553E-1,-4.61197E-1,-1.1217327E0,3.6202147E0,7.9639055E-2,1.9924881E0,-1.04610445E-2,2.086052E0,-1.4728956E0,1.6078758E-1,6.6251343E-1,-5.7958186E-1,6.284665E0,1.2244325E0,-8.694631E-2,-1.304533E0,1.7489398E-1,1.8644974E0,1.3035764E0,-5.309924E-1,-2.1807625E0,-1.560847E-1,-6.876622E-1,1.0392325E0,2.5143313E0,7.258833E-1,-7.967071E-1,1.6306804E0,-1.3713502E0,3.838816E-1,-1.3683851E0,2.350736E0,-2.0921426E-1,-2.0824783E0],"split_indices":[3,3,2,2,1,2,3,0,0,0,0,3,0,1,2,1,3,0,3,3,0,2,1,2,0,0,0,2,1,0,1,3,0,2,0,0,0,0,0,0,3,0,0,2,3,0,3,0,0,0,0,2,3,3,1,0,2,0,1,0,0,2,0,0,0,0,0,0,0,0,0,0,0,0,0,0,0,0,0,0,0,0,0,0,0,0,0,0,0,0,0,0,0,0,0,0,0,0,0,0,0,0,0,0,0,0,0,0,0,0,0,0,0,0,0,0,0,0,0,0,0],"split_type":[0,0,0,0,0,0,0,0,0,0,0,0,0,0,0,0,0,0,0,0,0,0,0,0,0,0,0,0,0,0,0,0,0,0,0,0,0,0,0,0,0,0,0,0,0,0,0,0,0,0,0,0,0,0,0,0,0,0,0,0,0,0,0,0,0,0,0,0,0,0,0,0,0,0,0,0,0,0,0,0,0,0,0,0,0,0,0,0,0,0,0,0,0,0,0,0,0,0,0,0,0,0,0,0,0,0,0,0,0,0,0,0,0,0,0,0,0,0,0,0,0],"sum_hessian":[2.396E3,1.02E3,1.376E3,2.16E2,8.04E2,3.29E2,1.047E3,2E1,1.96E2,5.44E2,2.6E2,3.2E1,2.97E2,6.55E2,3.92E2,1E1,1E1,1.83E2,1.3E1,9.8E1,4.46E2,2.43E2,1.7E1,2.4E1,8E0,1.3E2,1.67E2,2.38E2,4.17E2,3.14E2,7.8E1,8E0,2E0,7E0,3E0,1.16E2,6.7E1,7E0,6E0,7.8E1,2E1,2E0,4.44E2,2E1,2.23E2,2E0,1.5E1,6E0,1.8E1,3E0,5E0,1.26E2,4E0,1.29E2,3.8E1,5.4E1,1.84E2,4.13E2,4E0,1.81E2,1.33E2,3.1E1,4.7E1,3E0,5E0,1E0,1E0,4E0,3E0,2E0,1E0,1.02E2,1.4E1,2.8E1,3.9E1,3E0,4E0,2E0,4E0,7.2E1,6E0,1E1,1E1,1.34E2,3.1E2,1.8E1,2E0,7.5E1,1.48E2,1E0,1.4E1,5E0,1.3E1,1E0,2E0,3E0,2E0,1.01E2,2.5E1,1E0,3E0,8.6E1,4.3E1,2.4E1,1.4E1,3.7E1,1.7E1,1.2E1,1.72E2,4.05E2,8E0,2E0,2E0,1.65E2,1.6E1,1.2E2,1.3E1,2.7E1,4E0,4E0,4.3E1],"tree_param":{"num_deleted":"0","num_feature":"4","num_nodes":"121","size_leaf_vector":"1"}},{"base_weights":[4.1627713E-2,1.056657E0,-1.3485622E0,9.1445786E-1,6.216444E0,2.2897916E0,-1.6718254E0,8.469928E0,8.3465904E-1,8.42302E0,3.4193347E0,1.6760837E0,1.3991503E1,-1.8425149E0,1.9809059E0,1.1759629E1,-2.6942334E0,1.0566939E0,-1.5566157E0,6.380145E0,3.0632892E0,-2.0200193E0,5.1092634E0,2.5893874E0,-4.28822E0,1.3013461E0,4.7290373E0,2.811035E-1,-2.0528617E0,1.0379729E1,1.0686957E0,6.2500614E-1,1.3678429E1,-1.2082708E0,1.9586621E-1,-5.209236E-1,1.3990811E0,-8.4596E-1,-7.526692E0,8.488962E0,-8.327885E-1,6.3680234E0,-2.4680367E0,1.7778841E0,7.2806177E0,1.4046068E0,-6.5986056E0,-1.9127967E0,2.2643826E0,-1.6431408E0,-2.9677234E0,3.8721735E0,4.1957763E-1,3.0869105E0,-3.213099E-1,4.6640344E0,1.4278398E0,5.693651E-1,-3.1666267E-1,3.8688245E-1,2.8985808E0,-4.2128024E-1,1.5423841E0,-2.3478127E0,-6.3507617E-1,1.0635624E-1,2.8060195E0,1.2123817E0,2.9243765E0,2.0969182E-1,-1.3203083E0,8.499476E-1,-7.0093447E-1,3.4136662E0,7.9558724E-1,-9.760223E-1,1.2125243E0,-2.3622186E0,-5.544476E-1,-8.438875E-1,2.0000567E0,-5.0006133E-1,1.2070466E0,-3.2219926E-1,-8.5552114E-1,-5.852409E-1,-1.2350574E0,1.6328496E0,-9.554047E-1,-5.00971E-1,1.5411978E0],"categories":[],"categories_nodes":[],"categories_segments":[],"categories_sizes":[],"default_left":[0,0,0,0,0,0,0,0,0,0,0,0,0,0,0,0,0,0,0,0,0,0,0,0,0,0,0,0,0,0,0,0,0,0,0,0,0,0,0,0,0,0,0,0,0,0,0,0,0,0,0,0,0,0,0,0,0,0,0,0,0,0,0,0,0,0,0,0,0,0,0,0,0,0,0,0,0,0,0,0,0,0,0,0,0,0,0,0,0,0,0],"id":4,"left_children":[1,3,5,7,9,11,13,15,17,19,21,23,25,27,29,31,33,35,37,39,-1,-1,41,43,45,-1,-1,47,49,51,53,-1,55,-1,-1,57,59,61,63,65,-1,67,69,71,73,75,77,79,81,83,85,-1,-1,87,89,-1,-1,-1,-1,-1,-1,-1,-1,-1,-1,-1,-1,-1,-1,-1,-1,-1,-1,-1,-1,-1,-1,-1,-1,-1,-1,-1,-1,-1,-1,-1,-1,-1,-1,-1,-1],"loss_changes":[3.3837922E3,1.0112473E3,1.194088E3,8.068694E2,1.9956421E2,5.7260803E2,5.834885E2,5.458578E2,7.115202E2,7.9033203E0,3.4323578E2,4.4688147E2,4.449463E-2,3.9768994E2,3.106899E2,1.7573816E2,2.0480894E1,6.6187976E2,4.772969E2,2.5526773E2,0E0,0E0,1.6832452E2,2.5354227E2,1.5394734E2,0E0,0E0,3.5677176E2,2.9836743E2,7.274786E1,1.1039973E2,0E0,7.597949E1,0E0,0E0,2.852008E2,8.97527E2,3.5151993E2,2.8659058E0,6.700098E1,0E0,7.070453E1,2.1441603E1,2.7146625E2,1.5951868E2,6.228481E1,3.3919403E1,3.199534E2,3.0407275E2,3.8282922E2,2.8294507E2,0E0,0E0,2.5373969E2,1.8525435E2,0E0,0E0,0E0,0E0,0E0,0E0,0E0,0E0,0E0,0E0,0E0,0E0,0E0,0E0,0E0,0E0,0E0,0E0,0E0,0E0,0E0,0E0,0E0,0E0,0E0,0E0,0E0,0E0,0E0,0E0,0E0,0E0,0E0,0E0,0E0,0E0],"parents":[2147483647,0,0,1,1,2,2,3,3,4,4,5,5,6,6,7,7,8,8,9,9,10,10,11,11,12,12,13,13,14,14,15,15,16,16,17,17,18,18,19,19,22,22,23,23,24,24,27,27,28,28,29,29,30,30,32,32,35,35,36,36,37,37,38,38,39,39,41,41,42,42,43,43,44,44,45,45,46,46,47,47,48,48,49,49,50,50,53,53,54,54],"right_children":[2,4,6,8,10,12,14,16,18,20,22,24,26,28,30,32,34,36,38,40,-1,-1,42,44,46,-1,-1,48,50,52,54,-1,56,-1,-1,58,60,62,64,66,-1,68,70,72,74,76,78,80,82,84,86,-1,-1,88,90,-1,-1,-1,-1,-1,-1,-1,-1,-1,-1,-1,-1,-1,-1,-1,-1,-1,-1,-1,-1,-1,-1,-1,-1,-1,-1,-1,-1,-1,-1,-1,-1,-1,-1,-1,-1],"split_conditions":[2.3739195E2,2.2203997E1,1.2261157E1,7.9932966E0,1.6593633E2,1.224E1,1.8360249E1,1.6023271E2,2.4336637E1,1.0787098E2,1.7562022E2,1.1928989E1,2.52216E2,-3.5314167E0,1.2758432E1,4.3674377E1,1.3076915E1,5.7930183E1,1.19E1,9.548709E1,3.0632892E0,-2.0200193E0,2.2060132E2,1E0,-1.2480834E0,1.3013461E0,4.7290373E0,3.103076E2,3.0780145E2,2.2203997E1,1.9254E1,6.2500614E-1,1.5520664E1,-1.2082708E0,1.9586621E-1,1.1659777E1,2.3871555E1,8.7E0,1.5568584E1,2.3418585E1,-8.327885E-1,1.5124284E1,1E-1,9.493584E0,-1.2480834E0,2.416226E2,6E-1,-3.698083E0,-7.212666E0,1.1351916E1,4.5935836E0,3.8721735E0,4.1957763E-1,2.7278113E2,2.1183165E1,4.6640344E0,1.4278398E0,5.693651E-1,-3.1666267E-1,3.8688245E-1,2.8985808E0,-4.2128024E-1,1.5423841E0,-2.3478127E0,-6.3507617E-1,1.0635624E-1,2.8060195E0,1.2123817E0,2.9243765E0,2.0969182E-1,-1.3203083E0,8.499476E-1,-7.0093447E-1,3.4136662E0,7.9558724E-1,-9.760223E-1,1.2125243E0,-2.3622186E0,-5.544476E-1,-8.438875E-1,2.0000567E0,-5.0006133E-1,1.2070466E0,-3.2219926E-1,-8.5552114E-1,-5.852409E-1,-1.2350574E0,1.6328496E0,-9.554047E-1,-5.00971E-1,1.5411978E0],"split_indices":[3,0,2,2,3,2,0,3,2,3,3,2,3,0,2,3,0,3,1,3,0,0,3,1,0,0,0,3,3,0,0,0,0,0,0,2,2,1,0,0,0,2,1,0,0,3,1,0,0,0,0,0,0,3,0,0,0,0,0,0,0,0,0,0,0,0,0,0,0,0,0,0,0,0,0,0,0,0,0,0,0,0,0,0,0,0,0,0,0,0,0],"split_type":[0,0,0,0,0,0,0,0,0,0,0,0,0,0,0,0,0,0,0,0,0,0,0,0,0,0,0,0,0,0,0,0,0,0,0,0,0,0,0,0,0,0,0,0,0,0,0,0,0,0,0,0,0,0,0,0,0,0,0,0,0,0,0,0,0,0,0,0,0,0,0,0,0,0,0,0,0,0,0,0,0,0,0,0,0,0,0,0,0,0,0],"sum_hessian":[2.396E3,1.385E3,1.011E3,1.349E3,3.6E1,8.2E1,9.29E2,1.3E1,1.336E3,1.9E1,1.7E1,7.9E1,3E0,8.88E2,4.1E1,1E1,3E0,1.223E3,1.13E2,1.1E1,8E0,2E0,1.5E1,6.9E1,1E1,1E0,2E0,8E1,8.08E2,3E0,3.8E1,2E0,8E0,2E0,1E0,2.18E2,1.005E3,1.02E2,1.1E1,9E0,2E0,1.3E1,2E0,6E1,9E0,3E0,7E0,3.8E1,4.2E1,5.6E2,2.48E2,2E0,1E0,1.5E1,2.3E1,6E0,2E0,3.9E1,1.79E2,9.93E2,1.2E1,9.4E1,8E0,1E1,1E0,1E0,8E0,9E0,4E0,1E0,1E0,4.8E1,1.2E1,4E0,5E0,1E0,2E0,5E0,2E0,3.5E1,3E0,1.3E1,2.9E1,3.82E2,1.78E2,1.33E2,1.15E2,1.1E1,4E0,1.9E1,4E0],"tree_param":{"num_deleted":"0","num_feature":"4","num_nodes":"91","size_leaf_vector":"1"}},{"base_weights":[4.0033106E-2,1.1697001E0,-7.3267454E-1,-5.0664835E-2,2.0310972E0,7.260071E-1,-1.1944076E0,-1.0262399E0,2.2127647E0,3.3421793E0,3.4628278E-1,4.1647077E0,4.5424062E-1,-5.733249E0,-1.1381465E0,-3.7650895E-1,-5.6192904E0,6.6615233E0,1.5221597E0,5.15153E0,1.002106E-1,9.674292E0,-2.4555865E-1,8.636583E0,1.1094911E0,2.1001534E-1,4.2993755E0,-8.605482E0,2.8806462E0,-8.493121E-1,-1.9700521E0,8.6393975E-2,-8.786623E0,-8.398227E0,1.2073187E0,5.7586884E-1,9.91193E0,2.8643382E-1,6.8349524E0,1.3770191E1,-6.396101E-1,8.669206E0,2.4604142E0,-5.3151613E-1,1.0852391E1,6.194973E-1,1.1983978E1,3.6562252E0,-1.2775493E0,-7.6773267E0,3.1518096E-1,1.4840782E1,4.9894828E-1,-1.0874348E1,3.1332016E-1,7.087278E0,-1.4608873E0,-3.54111E-1,-1.9814911E0,-2.7726023E0,6.6545796E-1,4.073187E-1,-8.033378E-1,-3.216172E0,2.1631148E0,-1.8578984E0,-3.1925662E0,-1.9110299E0,4.818098E0,-4.8119268E-1,1.2118585E0,6.9650187E0,1.07232146E-1,6.828199E-1,-1.849093E0,1.1877352E0,2.90896E0,-6.252371E-1,5.207364E0,5.731299E-1,-8.758458E-1,-2.778204E0,1.3103545E0,-1.3588774E0,1.8585192E-2,4.5460826E-1,5.9052906E0,1.0011001E0,-4.1960108E-1,4.9726233E0,2.0496967E0,-3.4966165E-1,1.3534663E0,-1.8796446E0,3.873825E-2,-3.3061078E0,-8.668589E-1,2.0854752E0,4.6502918E-2,-5.850475E-1,5.8578176E0,-6.900003E-1,2.6313179E0,6.9184375E-1,-3.9260178E0,1.4549704E-1,-4.502964E-3,3.802497E-1,2.8090253E0,-1.4241646E-1,3.2282617E0,-9.298838E-1,-7.461815E-2,-8.868316E-1,5.023416E-1,3.1610954E0,-4.6377815E-2],"categories":[],"categories_nodes":[],"categories_segments":[],"categories_sizes":[],"default_left":[0,0,0,0,0,0,0,0,0,0,0,0,0,0,0,0,0,0,0,0,0,0,0,0,0,0,0,0,0,0,0,0,0,0,0,0,0,0,0,0,0,0,0,0,0,0,0,0,0,0,0,0,0,0,0,0,0,0,0,0,0,0,0,0,0,0,0,0,0,0,0,0,0,0,0,0,0,0,0,0,0,0,0,0,0,0,0,0,0,0,0,0,0,0,0,0,0,0,0,0,0,0,0,0,0,0,0,0,0,0,0,0,0,0,0,0,0],"id":5,"left_children":[1,3,5,7,9,11,13,15,17,19,21,23,25,27,29,31,33,-1,35,37,39,41,43,45,47,49,51,53,55,57,59,61,63,65,67,69,71,73,75,77,79,-1,81,83,85,87,89,91,93,95,97,99,101,103,105,107,-1,109,111,113,115,-1,-1,-1,-1,-1,-1,-1,-1,-1,-1,-1,-1,-1,-1,-1,-1,-1,-1,-1,-1,-1,-1,-1,-1,-1,-1,-1,-1,-1,-1,-1,-1,-1,-1,-1,-1,-1,-1,-1,-1,-1,-1,-1,-1,-1,-1,-1,-1,-1,-1,-1,-1,-1,-1,-1,-1],"loss_changes":[2.0932039E3,1.02399023E3,9.599619E2,8.9436163E2,1.2601418E3,3.1864984E2,2.697743E2,8.424263E2,1.6506289E3,1.8824236E3,1.3880718E3,3.3198157E2,2.986633E2,3.4642395E2,2.5542944E2,9.701327E2,6.7411426E2,0E0,9.3905237E2,1.685185E3,1.1819545E3,2.0089923E3,7.578977E2,2.6093945E2,1.0193753E2,2.5209238E2,7.537704E2,2.0576276E2,1.6492252E2,4.4558075E2,5.835055E2,8.365028E2,4.794856E2,5.778955E1,1.3403278E3,8.2190515E2,1.5171482E3,7.070261E2,1.2207139E3,3.774579E2,6.5090717E2,0E0,3.0873578E2,5.5075275E2,4.6495404E2,2.6604866E1,5.2325867E1,3.8251953E1,6.395673E1,3.2179382E1,3.1568478E2,4.314297E2,3.6747165E2,2.6346167E2,1.7637283E-1,2.7871765E1,0E0,7.4913245E2,4.6808972E2,1.7713672E2,5.2781384E2,0E0,0E0,0E0,0E0,0E0,0E0,0E0,0E0,0E0,0E0,0E0,0E0,0E0,0E0,0E0,0E0,0E0,0E0,0E0,0E0,0E0,0E0,0E0,0E0,0E0,0E0,0E0,0E0,0E0,0E0,0E0,0E0,0E0,0E0,0E0,0E0,0E0,0E0,0E0,0E0,0E0,0E0,0E0,0E0,0E0,0E0,0E0,0E0,0E0,0E0,0E0,0E0,0E0,0E0,0E0,0E0],"parents":[2147483647,0,0,1,1,2,2,3,3,4,4,5,5,6,6,7,7,8,8,9,9,10,10,11,11,12,12,13,13,14,14,15,15,16,16,18,18,19,19,20,20,21,21,22,22,23,23,24,24,25,25,26,26,27,27,28,28,29,29,30,30,31,31,32,32,33,33,34,34,35,35,36,36,37,37,38,38,39,39,40,40,42,42,43,43,44,44,45,45,46,46,47,47,48,48,49,49,50,50,51,51,52,52,53,53,54,54,55,55,57,57,58,58,59,59,60,60],"right_children":[2,4,6,8,10,12,14,16,18,20,22,24,26,28,30,32,34,-1,36,38,40,42,44,46,48,50,52,54,56,58,60,62,64,66,68,70,72,74,76,78,80,-1,82,84,86,88,90,92,94,96,98,100,102,104,106,108,-1,110,112,114,116,-1,-1,-1,-1,-1,-1,-1,-1,-1,-1,-1,-1,-1,-1,-1,-1,-1,-1,-1,-1,-1,-1,-1,-1,-1,-1,-1,-1,-1,-1,-1,-1,-1,-1,-1,-1,-1,-1,-1,-1,-1,-1,-1,-1,-1,-1,-1,-1,-1,-1,-1,-1,-1,-1,-1,-1],"split_conditions":[1.9862555E2,9.548709E1,1.4529915E1,1.2608169E1,1.1751915E1,9.178235E0,1.9983575E2,8.783168E0,1.2806084E1,2.8E0,1.0640259E2,2.664657E2,1.44E1,1.985556E1,1.4000002E0,8.9873795E1,5E-1,6.6615233E0,8.824255E1,1.4706668E0,1.1252519E1,1.46102495E1,1.977469E2,2.2060132E2,-3.1939166E0,1.9921053E2,2E-1,1.8764414E1,4.4165E0,1.1464417E1,1.3566499E1,1.879255E1,2.0883102E1,6.582336E1,1.1147748E1,1.70665E1,8.9873795E1,1.8343504E2,1.5281989E1,4.2999997E0,1.5842862E2,8.669206E0,1.4906082E1,1.3076915E1,1.5745627E1,6.274834E0,1E-1,2.7465656E2,-2.2105832E0,8.051917E0,2.0174783E2,-3.698083E0,1.80665E1,-1.3814168E0,1.8991499E1,3.6748335E0,-1.4608873E0,1.1251918E1,1.6424831E1,1.3900001E1,1.3699833E1,4.073187E-1,-8.033378E-1,-3.216172E0,2.1631148E0,-1.8578984E0,-3.1925662E0,-1.9110299E0,4.818098E0,-4.8119268E-1,1.2118585E0,6.9650187E0,1.07232146E-1,6.828199E-1,-1.849093E0,1.1877352E0,2.90896E0,-6.252371E-1,5.207364E0,5.731299E-1,-8.758458E-1,-2.778204E0,1.3103545E0,-1.3588774E0,1.8585192E-2,4.5460826E-1,5.9052906E0,1.0011001E0,-4.1960108E-1,4.9726233E0,2.0496967E0,-3.4966165E-1,1.3534663E0,-1.8796446E0,3.873825E-2,-3.3061078E0,-8.668589E-1,2.0854752E0,4.6502918E-2,-5.850475E-1,5.8578176E0,-6.900003E-1,2.6313179E0,6.9184375E-1,-3.9260178E0,1.4549704E-1,-4.502964E-3,3.802497E-1,2.8090253E0,-1.4241646E-1,3.2282617E0,-9.298838E-1,-7.461815E-2,-8.868316E-1,5.023416E-1,3.1610954E0,-4.6377815E-2],"split_indices":[3,3,2,0,0,2,3,0,0,1,3,3,2,2,1,3,1,0,3,0,2,0,3,3,0,3,1,0,0,0,0,2,2,3,0,0,3,3,2,1,3,0,0,0,2,0,1,3,0,0,3,0,0,0,0,0,0,0,0,1,0,0,0,0,0,0,0,0,0,0,0,0,0,0,0,0,0,0,0,0,0,0,0,0,0,0,0,0,0,0,0,0,0,0,0,0,0,0,0,0,0,0,0,0,0,0,0,0,0,0,0,0,0,0,0,0,0],"split_type":[0,0,0,0,0,0,0,0,0,0,0,0,0,0,0,0,0,0,0,0,0,0,0,0,0,0,0,0,0,0,0,0,0,0,0,0,0,0,0,0,0,0,0,0,0,0,0,0,0,0,0,0,0,0,0,0,0,0,0,0,0,0,0,0,0,0,0,0,0,0,0,0,0,0,0,0,0,0,0,0,0,0,0,0,0,0,0,0,0,0,0,0,0,0,0,0,0,0,0,0,0,0,0,0,0,0,0,0,0,0,0,0,0,0,0,0,0],"sum_hessian":[2.396E3,9.73E2,1.423E3,4.03E2,5.7E2,3.42E2,1.081E3,2.82E2,1.21E2,3.2E2,2.5E2,2.4E1,3.18E2,1.2E1,1.069E3,2.48E2,3.4E1,3E0,1.18E2,2.05E2,1.15E2,1.4E1,2.36E2,9E0,1.5E1,3E2,1.8E1,9E0,3E0,7.95E2,2.74E2,2.36E2,1.2E1,2.4E1,1E1,1.07E2,1.1E1,5.3E1,1.52E2,5E0,1.1E2,3E0,1.1E1,2.31E2,5E0,3E0,6E0,7E0,8E0,3E0,2.97E2,4E0,1.4E1,7E0,2E0,2E0,1E0,5.54E2,2.41E2,2.1E2,6.4E1,1.62E2,7.4E1,1.1E1,1E0,1.4E1,1E1,7E0,3E0,6.6E1,4.1E1,4E0,7E0,4.1E1,1.2E1,7.7E1,7.5E1,1E0,4E0,5.2E1,5.8E1,1E0,1E1,2.9E1,2.02E2,3E0,2E0,1E0,2E0,2E0,4E0,1E0,6E0,1E0,7E0,1E0,2E0,6E0,2.91E2,1E0,3E0,1.1E1,3E0,1E0,6E0,1E0,1E0,1E0,1E0,5.49E2,5E0,1.46E2,9.5E1,2.02E2,8E0,4E0,6E1],"tree_param":{"num_deleted":"0","num_feature":"4","num_nodes":"117","size_leaf_vector":"1"}},{"base_weights":[4.7084145E-2,9.727457E-1,-4.4655323E-1,-8.554289E-3,1.8903153E0,7.5558597E-1,-7.588273E-1,4.4609138E-1,-3.1641624E0,2.9170349E0,4.5607793E-1,1.5724891E0,-6.211657E-1,-2.6210382E0,-6.36902E-1,-3.6639363E-1,2.3001442E0,-2.0218875E0,-6.7080655E0,7.5422482E0,2.05647E0,-7.0212684E0,1.1249648E0,7.964499E-1,5.406436E0,-3.169769E0,8.2447165E-1,-7.4296074E0,-1.0006268E0,4.3801694E0,-7.6860255E-1,7.0047987E-1,-2.918948E0,6.0722876E0,1.7706859E0,-2.5578053E0,2.241098E0,-7.8734255E0,-2.4089894E0,-2.3721824E0,8.1569E0,1.2386336E0,1.0341818E1,1.4756279E0,-8.225468E0,-1.6527975E0,3.889335E0,1.5121046E0,-2.7352545E0,1.2860012E0,1.053992E1,1.7421865E0,-3.513591E0,2.1153453E-1,6.16123E0,-3.6833897E0,-9.307952E0,-8.661734E0,3.9838496E-1,-3.8534899E0,8.689673E0,-5.089136E-1,-1.5550736E0,2.714634E-3,2.5953875E0,-1.302218E0,2.4250418E-1,-4.8609793E-1,9.776898E-1,-1.226554E0,-3.38644E-1,3.0595517E0,-6.8936414E-1,-2.761188E0,-6.4331156E-1,3.383466E-1,-1.1891602E0,2.8654425E0,-2.6182118E-1,4.759164E-1,-3.6879919E0,1.0375474E1,1.6365848E0,-3.2245734E0,-4.6024647E-1,-2.518423E0,-1.884844E-1,5.4758115E0,8.8290226E-1,3.542313E-1,3.1063483E0,-1.2650893E0,7.5719136E-1,2.4560685E0,-6.768908E-1,4.656422E0,1.6482985E0,-1.1828911E0,1.0577366E0,-3.130274E-2,1.658568E0,2.0240476E0,3.0930948E-1,-2.4357357E0,1.8056145E-1,-3.007149E0,-1.1457137E0,6.53177E-1,-3.0866296E0,9.659896E-1,-1.4389935E0,-2.2577925E0,1.3364553E0,-1.3762156E0,3.688695E0,-4.224643E-1,3.3310854E-3,-7.052083E-1,-4.025728E-3],"categories":[],"categories_nodes":[],"categories_segments":[],"categories_sizes":[],"default_left":[0,0,0,0,0,0,0,0,0,0,0,0,0,0,0,0,0,0,0,0,0,0,0,0,0,0,0,0,0,0,0,0,0,0,0,0,0,0,0,0,0,0,0,0,0,0,0,0,0,0,0,0,0,0,0,0,0,0,0,0,0,0,0,0,0,0,0,0,0,0,0,0,0,0,0,0,0,0,0,0,0,0,0,0,0,0,0,0,0,0,0,0,0,0,0,0,0,0,0,0,0,0,0,0,0,0,0,0,0,0,0,0,0,0,0,0,0,0,0],"id":6,"left_children":[1,3,5,7,9,11,13,15,17,19,21,23,25,27,29,31,33,35,37,39,41,43,45,47,49,51,53,55,57,59,61,63,65,-1,67,69,71,73,75,-1,77,79,81,-1,83,85,87,89,91,93,95,-1,97,99,101,103,105,107,109,111,113,115,117,-1,-1,-1,-1,-1,-1,-1,-1,-1,-1,-1,-1,-1,-1,-1,-1,-1,-1,-1,-1,-1,-1,-1,-1,-1,-1,-1,-1,-1,-1,-1,-1,-1,-1,-1,-1,-1,-1,-1,-1,-1,-1,-1,-1,-1,-1,-1,-1,-1,-1,-1,-1,-1,-1,-1,-1],"loss_changes":[1.0957224E3,7.5095886E2,5.8769415E2,5.810237E2,6.333429E2,3.6424612E2,2.8032758E2,5.3410486E2,1.9289078E2,9.835437E2,9.131701E2,5.996786E2,4.484205E2,5.847471E2,7.7446313E2,6.7468805E2,9.900422E2,9.711665E1,4.115265E1,4.3484644E2,1.4304907E3,2.561316E2,1.2887817E3,4.3380777E2,7.0562E2,1.5621078E2,2.5384229E2,9.941223E1,6.250935E2,1.0979753E3,2.3163129E2,9.619733E2,3.9036414E2,0E0,5.402388E2,7.413014E1,2.0402745E2,4.8867615E1,2.6467773E1,0E0,4.8685083E2,9.3713086E2,2.0621597E3,0E0,2.1987085E2,5.749333E2,1.0880477E3,4.038027E2,2.3663022E2,5.0737335E2,2.9173865E2,0E0,1.4387238E2,1.19823204E2,1.7077545E1,1.5695273E2,8.871216E0,1.8111963E2,7.483547E2,3.6916187E2,1.0139398E3,4.0079333E2,3.4586176E2,0E0,0E0,0E0,0E0,0E0,0E0,0E0,0E0,0E0,0E0,0E0,0E0,0E0,0E0,0E0,0E0,0E0,0E0,0E0,0E0,0E0,0E0,0E0,0E0,0E0,0E0,0E0,0E0,0E0,0E0,0E0,0E0,0E0,0E0,0E0,0E0,0E0,0E0,0E0,0E0,0E0,0E0,0E0,0E0,0E0,0E0,0E0,0E0,0E0,0E0,0E0,0E0,0E0,0E0,0E0,0E0],"parents":[2147483647,0,0,1,1,2,2,3,3,4,4,5,5,6,6,7,7,8,8,9,9,10,10,11,11,12,12,13,13,14,14,15,15,16,16,17,17,18,18,19,19,20,20,21,21,22,22,23,23,24,24,25,25,26,26,27,27,28,28,29,29,30,30,31,31,32,32,34,34,35,35,36,36,37,37,38,38,40,40,41,41,42,42,44,44,45,45,46,46,47,47,48,48,49,49,50,50,52,52,53,53,54,54,55,55,56,56,57,57,58,58,59,59,60,60,61,61,62,62],"right_children":[2,4,6,8,10,12,14,16,18,20,22,24,26,28,30,32,34,36,38,40,42,44,46,48,50,52,54,56,58,60,62,64,66,-1,68,70,72,74,76,-1,78,80,82,-1,84,86,88,90,92,94,96,-1,98,100,102,104,106,108,110,112,114,116,118,-1,-1,-1,-1,-1,-1,-1,-1,-1,-1,-1,-1,-1,-1,-1,-1,-1,-1,-1,-1,-1,-1,-1,-1,-1,-1,-1,-1,-1,-1,-1,-1,-1,-1,-1,-1,-1,-1,-1,-1,-1,-1,-1,-1,-1,-1,-1,-1,-1,-1,-1,-1,-1,-1,-1,-1],"split_conditions":[1.8162442E2,9.548709E1,1.4113653E1,2.1986542E1,1.2608169E1,1.1351916E1,1.94278E2,1.2608169E1,6.1864044E1,1.1841756E1,1.3174835E1,7.772751E0,1.6085249E1,1.6800856E1,1.9862555E2,4.8539996E0,1.2726917E1,1.5300001E1,6.7999997E0,-3.9543335E0,1.1147748E1,9.6932955E0,1.4145756E1,4.662334E0,1.2849528E1,1.872901E2,1.0200001E1,1.50038395E1,2.26025E0,1.6299694E1,3.023301E2,4.0519166E0,5E-1,6.0722876E0,4.3674377E1,2.1960606E1,4.0399995E-1,2.5630886E1,-3.9543335E0,-2.3721824E0,8.326917E0,1.7940782E2,1.1351916E1,1.4756279E0,2.153089E1,1.4416499E1,1.0356005E2,4.2999997E0,6.9415E0,1.01376915E1,3E-1,1.7421865E0,1.4003028E1,2.4068586E1,1.2758432E1,1.8574455E2,1.6454008E1,-3.387666E0,1.3781082E1,1.977469E2,2.1685832E0,4.5935836E0,3.3826105E2,2.714634E-3,2.5953875E0,-1.302218E0,2.4250418E-1,-4.8609793E-1,9.776898E-1,-1.226554E0,-3.38644E-1,3.0595517E0,-6.8936414E-1,-2.761188E0,-6.4331156E-1,3.383466E-1,-1.1891602E0,2.8654425E0,-2.6182118E-1,4.759164E-1,-3.6879919E0,1.0375474E1,1.6365848E0,-3.2245734E0,-4.6024647E-1,-2.518423E0,-1.884844E-1,5.4758115E0,8.8290226E-1,3.542313E-1,3.1063483E0,-1.2650893E0,7.5719136E-1,2.4560685E0,-6.768908E-1,4.656422E0,1.6482985E0,-1.1828911E0,1.0577366E0,-3.130274E-2,1.658568E0,2.0240476E0,3.0930948E-1,-2.4357357E0,1.8056145E-1,-3.007149E0,-1.1457137E0,6.53177E-1,-3.0866296E0,9.659896E-1,-1.4389935E0,-2.2577925E0,1.3364553E0,-1.3762156E0,3.688695E0,-4.224643E-1,3.3310854E-3,-7.052083E-1,-4.025728E-3],"split_indices":[3,3,2,2,0,0,3,0,3,2,0,0,0,2,3,0,0,1,1,0,0,2,2,0,2,3,1,2,0,2,3,0,1,0,3,3,0,2,0,0,0,3,0,0,2,0,3,1,0,2,1,0,2,0,2,3,2,0,0,3,0,0,3,0,0,0,0,0,0,0,0,0,0,0,0,0,0,0,0,0,0,0,0,0,0,0,0,0,0,0,0,0,0,0,0,0,0,0,0,0,0,0,0,0,0,0,0,0,0,0,0,0,0,0,0,0,0,0,0],"split_type":[0,0,0,0,0,0,0,0,0,0,0,0,0,0,0,0,0,0,0,0,0,0,0,0,0,0,0,0,0,0,0,0,0,0,0,0,0,0,0,0,0,0,0,0,0,0,0,0,0,0,0,0,0,0,0,0,0,0,0,0,0,0,0,0,0,0,0,0,0,0,0,0,0,0,0,0,0,0,0,0,0,0,0,0,0,0,0,0,0,0,0,0,0,0,0,0,0,0,0,0,0,0,0,0,0,0,0,0,0,0,0,0,0,0,0,0,0,0,0],"sum_hessian":[2.396E3,8.33E2,1.563E3,4.03E2,4.3E2,3.22E2,1.241E3,3.53E2,5E1,2.5E2,1.8E2,2.02E2,1.2E2,7.5E1,1.166E3,2.46E2,1.07E2,3.9E1,1.1E1,3.8E1,2.12E2,1.4E1,1.66E2,1.69E2,3.3E1,4.3E1,7.7E1,1.8E1,5.7E1,2.9E1,1.137E3,1.74E2,7.2E1,2E0,1.05E2,3.5E1,4E0,8E0,3E0,1E0,3.7E1,1.94E2,1.8E1,1E0,1.3E1,8.3E1,8.3E1,1.41E2,2.8E1,1.9E1,1.4E1,1E0,4.2E1,7E1,7E0,7E0,1.1E1,8E0,4.9E1,1E1,1.9E1,8.56E2,2.81E2,1.61E2,1.3E1,5.2E1,2E1,3.2E1,7.3E1,1.6E1,1.9E1,1E0,3E0,6E0,2E0,1E0,2E0,3.2E1,5E0,1.9E2,4E0,2E0,1.6E1,9E0,4E0,1E1,7.3E1,4E0,7.9E1,1.37E2,4E0,2.2E1,6E0,6E0,1.3E1,6E0,8E0,4E1,2E0,6.7E1,3E0,6E0,1E0,3E0,4E0,9E0,2E0,1E0,7E0,3.2E1,1.7E1,7E0,3E0,4E0,1.5E1,3.13E2,5.43E2,1.85E2,9.6E1],"tree_param":{"num_deleted":"0","num_feature":"4","num_nodes":"119","size_leaf_vector":"1"}},{"base_weights":[4.2424325E-2,4.6898544E-1,-5.418209E-1,1.2828645E0,-4.842683E-3,2.3072293E0,-6.4927274E-1,2.1780775E0,-5.853966E-1,-2.1322943E-1,3.7643447E0,3.4905093E0,-8.069332E-1,-7.770867E-1,1.2806755E0,2.9986343E-1,4.1782103E0,9.3504466E-2,-4.2446136E0,-2.9688948E-1,6.693315E0,-9.0937877E-1,5.087862E0,1.9891573E0,3.4877982E0,-1.5848019E0,1.5318031E0,8.432346E-1,-9.546559E-1,6.4024746E-1,3.8424032E0,-4.6206182E-1,6.740395E0,9.8905525E0,2.8551385E0,4.585862E0,-6.869337E-1,-6.9422007E0,1.6221834E0,1.3205773E-1,-1.4515997E0,1.0782758E1,4.4732094E-1,3.283551E0,-3.7744174E0,1.0765873E1,2.7964556E0,-2.163977E0,3.1536157E0,1.0633167E0,-3.84626E-1,-7.207291E-1,2.1984837E0,-6.634673E-1,-1.6040882E0,2.7010167E0,-4.089679E-1,6.694494E0,8.488391E-1,2.1900411E-1,-2.9918988E0,7.5055776E0,9.3550116E-1,4.594179E0,1.5368687E0,5.232068E-1,2.3289535E0,-2.08208E0,3.2533977E0,-3.4761646E0,-1.21909246E-1,-2.8241987E0,-1.2888336E-1,-2.6371333E-1,2.0752964E0,1.1878973E-1,-9.905454E-1,-5.9721583E-1,7.1222407E-1,4.78574E-1,4.4933105E0,-1.2320702E0,2.799631E0,-4.3270113E-3,1.2334952E0,-1.6444818E0,-3.3708745E-1,-6.286583E-2,3.6025946E0,2.6769188E-1,3.2988756E0,4.4154036E-1,2.5732276E0,-6.447741E-1,4.5246106E-1,4.2868456E-1,-1.3312858E0,1.1438822E0,-9.993771E-2,-2.7912515E-1,3.6999762E-1,-2.3932593E0,-4.2554188E-1,1.8963176E0,-6.484989E-1,-3.148412E-1,1.3971512E0,5.5804256E-2,2.3876963E0,-7.3883414E-1,1.1844747E0],"categories":[],"categories_nodes":[],"categories_segments":[],"categories_sizes":[],"default_left":[0,0,0,0,0,0,0,0,0,0,0,0,0,0,0,0,0,0,0,0,0,0,0,0,0,0,0,0,0,0,0,0,0,0,0,0,0,0,0,0,0,0,0,0,0,0,0,0,0,0,0,0,0,0,0,0,0,0,0,0,0,0,0,0,0,0,0,0,0,0,0,0,0,0,0,0,0,0,0,0,0,0,0,0,0,0,0,0,0,0,0,0,0,0,0,0,0,0,0,0,0,0,0,0,0,0,0,0,0,0,0],"id":7,"left_children":[1,3,5,7,9,11,13,15,17,19,21,23,25,27,29,31,33,35,37,39,41,43,45,47,-1,-1,49,51,53,55,57,59,61,63,65,67,69,71,73,75,77,79,81,83,85,87,89,-1,91,-1,93,95,97,99,101,103,105,107,109,-1,-1,-1,-1,-1,-1,-1,-1,-1,-1,-1,-1,-1,-1,-1,-1,-1,-1,-1,-1,-1,-1,-1,-1,-1,-1,-1,-1,-1,-1,-1,-1,-1,-1,-1,-1,-1,-1,-1,-1,-1,-1,-1,-1,-1,-1,-1,-1,-1,-1,-1,-1],"loss_changes":[5.9762555E2,5.345016E2,3.1130743E2,8.542457E2,6.896412E2,1.3915892E2,2.4174936E2,1.2948007E3,4.127818E2,4.8271826E2,2.891715E2,3.066581E2,1.2323534E2,2.643557E2,9.761666E1,8.8150397E2,1.2339202E3,4.974972E2,4.2274258E2,4.0783157E2,2.5060303E2,1.4453545E2,4.3827637E2,2.799277E2,0E0,0E0,3.2219086E1,1.9446451E2,1.5513837E2,1.09214165E2,9.6772446E1,1.8326584E3,1.1798726E3,7.231094E2,7.335768E2,1.5901985E3,3.653441E2,2.8571576E2,1.2528753E2,5.459501E2,4.6466333E2,2.073534E2,2.4064238E2,1.3714561E1,2.5518547E1,1.3891626E2,4.1175616E2,0E0,1.8805626E2,0E0,1.9942135E1,3.4991614E2,2.0154169E2,2.907788E2,2.9035114E2,3.1291675E2,1.1521335E2,4.789908E1,8.1572136E1,0E0,0E0,0E0,0E0,0E0,0E0,0E0,0E0,0E0,0E0,0E0,0E0,0E0,0E0,0E0,0E0,0E0,0E0,0E0,0E0,0E0,0E0,0E0,0E0,0E0,0E0,0E0,0E0,0E0,0E0,0E0,0E0,0E0,0E0,0E0,0E0,0E0,0E0,0E0,0E0,0E0,0E0,0E0,0E0,0E0,0E0,0E0,0E0,0E0,0E0,0E0,0E0],"parents":[2147483647,0,0,1,1,2,2,3,3,4,4,5,5,6,6,7,7,8,8,9,9,10,10,11,11,12,12,13,13,14,14,15,15,16,16,17,17,18,18,19,19,20,20,21,21,22,22,23,23,26,26,27,27,28,28,29,29,30,30,31,31,32,32,33,33,34,34,35,35,36,36,37,37,38,38,39,39,40,40,41,41,42,42,43,43,44,44,45,45,46,46,48,48,50,50,51,51,52,52,53,53,54,54,55,55,56,56,57,57,58,58],"right_children":[2,4,6,8,10,12,14,16,18,20,22,24,26,28,30,32,34,36,38,40,42,44,46,48,-1,-1,50,52,54,56,58,60,62,64,66,68,70,72,74,76,78,80,82,84,86,88,90,-1,92,-1,94,96,98,100,102,104,106,108,110,-1,-1,-1,-1,-1,-1,-1,-1,-1,-1,-1,-1,-1,-1,-1,-1,-1,-1,-1,-1,-1,-1,-1,-1,-1,-1,-1,-1,-1,-1,-1,-1,-1,-1,-1,-1,-1,-1,-1,-1,-1,-1,-1,-1,-1,-1,-1,-1,-1,-1,-1,-1],"split_conditions":[2.3739195E2,1E-1,1.0594036E1,1.5460248E1,1.9904E1,8.618585E0,1.7743584E1,1.4608827E2,1.764E1,2.3659216E2,4E-1,6.829E0,1.4993584E1,-3.5314167E0,2.8E0,1.3566499E1,1.6808882E2,6.3497482E1,1.9904E1,1.33415E1,1.3000001E0,2E-1,1.4773164E1,2.4690529E2,3.4877982E0,-1.5848019E0,1.72915E1,-5.943917E0,3.0780145E2,2.5479802E2,2.7278113E2,1.1351916E1,1.3931081E1,6.3998337E0,1.2356082E1,3.7677074E1,6.722798E1,2.0692531E2,2.318579E1,9.600001E0,8.8E0,3E-1,1.33415E1,2.0714417E1,1.288981E1,9E0,5.8000007E0,-2.163977E0,9.885262E0,1.0633167E0,1.9612333E1,1.5379206E1,1E-1,2.9399167E2,1.1753877E1,1.9254E1,3.355641E2,1.2979984E1,1.0200001E1,2.1900411E-1,-2.9918988E0,7.5055776E0,9.3550116E-1,4.594179E0,1.5368687E0,5.232068E-1,2.3289535E0,-2.08208E0,3.2533977E0,-3.4761646E0,-1.21909246E-1,-2.8241987E0,-1.2888336E-1,-2.6371333E-1,2.0752964E0,1.1878973E-1,-9.905454E-1,-5.9721583E-1,7.1222407E-1,4.78574E-1,4.4933105E0,-1.2320702E0,2.799631E0,-4.3270113E-3,1.2334952E0,-1.6444818E0,-3.3708745E-1,-6.286583E-2,3.6025946E0,2.6769188E-1,3.2988756E0,4.4154036E-1,2.5732276E0,-6.447741E-1,4.5246106E-1,4.2868456E-1,-1.3312858E0,1.1438822E0,-9.993771E-2,-2.7912515E-1,3.6999762E-1,-2.3932593E0,-4.2554188E-1,1.8963176E0,-6.484989E-1,-3.148412E-1,1.3971512E0,5.5804256E-2,2.3876963E0,-7.3883414E-1,1.1844747E0],"split_indices":[3,1,2,0,0,0,0,3,2,3,1,0,0,0,1,0,3,3,0,0,1,1,2,3,0,0,0,0,3,3,3,0,0,0,0,3,3,3,2,1,1,1,0,0,2,2,1,0,2,0,0,2,1,3,2,0,3,2,1,0,0,0,0,0,0,0,0,0,0,0,0,0,0,0,0,0,0,0,0,0,0,0,0,0,0,0,0,0,0,0,0,0,0,0,0,0,0,0,0,0,0,0,0,0,0,0,0,0,0,0,0],"split_type":[0,0,0,0,0,0,0,0,0,0,0,0,0,0,0,0,0,0,0,0,0,0,0,0,0,0,0,0,0,0,0,0,0,0,0,0,0,0,0,0,0,0,0,0,0,0,0,0,0,0,0,0,0,0,0,0,0,0,0,0,0,0,0,0,0,0,0,0,0,0,0,0,0,0,0,0,0,0,0,0,0,0,0,0,0,0,0,0,0,0,0,0,0,0,0,0,0,0,0,0,0,0,0,0,0,0,0,0,0,0,0],"sum_hessian":[2.396E3,1.385E3,1.011E3,5.09E2,8.76E2,3.6E1,9.75E2,3.44E2,1.65E2,8.31E2,4.5E1,2.6E1,1E1,9.15E2,6E1,1.78E2,1.66E2,1.4E2,2.5E1,8.22E2,9E0,1E1,3.5E1,2.3E1,3E0,3E0,7E0,9E1,8.25E2,4.9E1,1.1E1,1.6E2,1.8E1,3E1,1.36E2,2E1,1.2E2,1.7E1,8E0,6E2,2.22E2,5E0,4E0,4E0,6E0,9E0,2.6E1,2E0,2.1E1,3E0,4E0,4.2E1,4.8E1,5.71E2,2.54E2,1.6E1,3.3E1,5E0,6E0,1.43E2,1.7E1,2E0,1.6E1,1.3E1,1.7E1,1.12E2,2.4E1,7E0,1.3E1,2E0,1.18E2,1.2E1,5E0,6E0,2E0,5.58E2,4.2E1,1.95E2,2.7E1,2E0,3E0,3E0,1E0,1E0,3E0,3E0,3E0,1E0,8E0,2.2E1,4E0,1.7E1,4E0,2E0,2E0,2.7E1,1.5E1,2.9E1,1.9E1,5.01E2,7E1,6E0,2.48E2,9E0,7E0,3E1,3E0,1E0,4E0,3E0,3E0],"tree_param":{"num_deleted":"0","num_feature":"4","num_nodes":"111","size_leaf_vector":"1"}},{"base_weights":[4.199458E-2,1.8988256E-1,-1.1045605E0,1.4334026E-1,3.5472207E0,-1.7076257E0,2.1131107E-1,7.5273645E-1,-1.311136E-1,7.7488667E-1,5.009834E0,-1.3223023E0,-3.7746637E0,5.694694E0,-1.4045562E0,3.8623258E-1,4.9671516E0,-1.8155655E-1,4.388572E0,4.9663615E0,-1.8932154E0,-1.4652795E0,6.6485896E0,-4.2546396E0,2.8884625E-1,4.0764377E-1,1.094098E1,2.208883E0,-2.6523473E0,1.7359233E-1,3.9209619E0,9.286688E0,-4.592522E-1,7.8806885E-2,-1.3327798E0,4.3418536E-1,6.146549E0,-2.0818803E0,8.284448E0,7.750243E-1,-4.054627E0,-8.5986066E-1,-3.064426E0,3.9223976E0,-9.3053216E-1,-4.579973E0,5.8180535E-1,4.416317E-1,-4.8913983E-1,2.3396015E0,-1.6572334E0,5.976167E0,6.206016E0,-1.6850165E-1,8.423784E0,-3.8751333E0,1.6446348E0,1.9767296E0,2.0997299E-2,3.038381E0,7.5046647E-1,4.16333E0,1.2229491E0,1.5049742E0,-1.0532116E0,-5.2889217E-2,5.4338694E-1,-8.625875E-1,3.5438195E-2,-6.0179275E-1,3.9702383E-1,1.0343653E0,2.1588268E0,-8.941385E-1,-2.3665982E-1,3.7234921E0,6.2584305E-1,1.5782963E0,-8.906253E-1,-3.8500884E-1,-2.15936E0,-1.725819E-1,-1.3889656E0,3.56413E-1,-1.4246602E0,5.16479E-1,-1.4742818E0,1.0587443E0,-8.885336E-3,-5.3907984E-1,2.2817998E0,-8.3085346E-1,1.5201656E0,-2.1201898E-1,3.2649286E0,-1.6249455E0,-3.673728E-1,-6.1995196E-1,2.1760602E0],"categories":[],"categories_nodes":[],"categories_segments":[],"categories_sizes":[],"default_left":[0,0,0,0,0,0,0,0,0,0,0,0,0,0,0,0,0,0,0,0,0,0,0,0,0,0,0,0,0,0,0,0,0,0,0,0,0,0,0,0,0,0,0,0,0,0,0,0,0,0,0,0,0,0,0,0,0,0,0,0,0,0,0,0,0,0,0,0,0,0,0,0,0,0,0,0,0,0,0,0,0,0,0,0,0,0,0,0,0,0,0,0,0,0,0,0,0,0,0],"id":8,"left_children":[1,3,5,7,9,11,13,15,17,19,-1,21,23,25,27,29,31,33,35,37,39,41,43,45,47,49,51,53,55,57,59,61,63,65,67,69,71,73,75,77,79,81,83,-1,-1,85,-1,-1,-1,87,-1,-1,89,91,93,95,97,-1,-1,-1,-1,-1,-1,-1,-1,-1,-1,-1,-1,-1,-1,-1,-1,-1,-1,-1,-1,-1,-1,-1,-1,-1,-1,-1,-1,-1,-1,-1,-1,-1,-1,-1,-1,-1,-1,-1,-1,-1,-1],"loss_changes":[4.066492E2,3.313841E2,2.1779529E2,3.506571E2,1.0444683E3,1.4474664E2,7.78855E2,1.00361597E3,3.304649E2,2.8898447E2,0E0,1.9208676E2,5.779016E1,5.502876E2,3.1245834E2,4.502948E2,1.2231213E3,4.2902792E2,1.0855881E2,2.5111398E2,9.541705E1,1.5033322E2,2.2852414E2,6.1275146E1,1.1484396E1,1.3898311E2,3.0155237E2,2.6737323E2,2.7434192E2,3.7639822E2,2.7421198E2,6.371189E2,4.186336E2,5.16533E2,5.911826E2,1.5673882E1,6.344635E0,2.2963276E0,1.5317868E2,1.4997406E2,6.915924E1,1.2179325E2,3.136523E2,0E0,0E0,6.112555E1,0E0,0E0,0E0,2.5469177E1,0E0,0E0,1.0329941E2,2.0468793E2,1.1996524E2,1.5678473E2,2.6477448E2,0E0,0E0,0E0,0E0,0E0,0E0,0E0,0E0,0E0,0E0,0E0,0E0,0E0,0E0,0E0,0E0,0E0,0E0,0E0,0E0,0E0,0E0,0E0,0E0,0E0,0E0,0E0,0E0,0E0,0E0,0E0,0E0,0E0,0E0,0E0,0E0,0E0,0E0,0E0,0E0,0E0,0E0],"parents":[2147483647,0,0,1,1,2,2,3,3,4,4,5,5,6,6,7,7,8,8,9,9,11,11,12,12,13,13,14,14,15,15,16,16,17,17,18,18,19,19,20,20,21,21,22,22,23,23,24,24,25,25,26,26,27,27,28,28,29,29,30,30,31,31,32,32,33,33,34,34,35,35,36,36,37,37,38,38,39,39,40,40,41,41,42,42,45,45,49,49,52,52,53,53,54,54,55,55,56,56],"right_children":[2,4,6,8,10,12,14,16,18,20,-1,22,24,26,28,30,32,34,36,38,40,42,44,46,48,50,52,54,56,58,60,62,64,66,68,70,72,74,76,78,80,82,84,-1,-1,86,-1,-1,-1,88,-1,-1,90,92,94,96,98,-1,-1,-1,-1,-1,-1,-1,-1,-1,-1,-1,-1,-1,-1,-1,-1,-1,-1,-1,-1,-1,-1,-1,-1,-1,-1,-1,-1,-1,-1,-1,-1,-1,-1,-1,-1,-1,-1,-1,-1,-1,-1],"split_conditions":[2.4336637E1,2.3871555E1,2.9179993E1,1.6023271E2,4.4E0,7.3999996E0,2.9827904E1,1.5068828E2,1.4500002E1,1E-1,5.009834E0,6.7999997E0,2.862396E1,4E-1,2E-1,2.027275E1,8.000001E-1,2.2E0,1.872901E2,5.7930183E1,2.8581667E0,2.7004987E2,6.9415E0,3.445175E2,6.099834E0,2.658102E2,1.0000001E0,3.1655441E1,6.9999995E0,7.9932966E0,2.0549833E1,1.5456833E2,1.353236E1,2.109305E1,4.4E0,3.5435827E0,1.687398E1,7.4290004E0,2.5660376E2,2.4756555E2,2.2229503E2,5.2000003E0,1.24833286E-1,3.9223976E0,-9.3053216E-1,1.716203E1,5.8180535E-1,4.416317E-1,-4.8913983E-1,2.3812042E2,-1.6572334E0,5.976167E0,-9.939166E-1,1E-1,2.4920132E2,2.532871E2,3.3510952E1,1.9767296E0,2.0997299E-2,3.038381E0,7.5046647E-1,4.16333E0,1.2229491E0,1.5049742E0,-1.0532116E0,-5.2889217E-2,5.4338694E-1,-8.625875E-1,3.5438195E-2,-6.0179275E-1,3.9702383E-1,1.0343653E0,2.1588268E0,-8.941385E-1,-2.3665982E-1,3.7234921E0,6.2584305E-1,1.5782963E0,-8.906253E-1,-3.8500884E-1,-2.15936E0,-1.725819E-1,-1.3889656E0,3.56413E-1,-1.4246602E0,5.16479E-1,-1.4742818E0,1.0587443E0,-8.885336E-3,-5.3907984E-1,2.2817998E0,-8.3085346E-1,1.5201656E0,-2.1201898E-1,3.2649286E0,-1.6249455E0,-3.673728E-1,-6.1995196E-1,2.1760602E0],"split_indices":[2,2,2,3,1,1,2,3,1,1,0,1,2,1,1,0,1,1,3,3,0,3,0,3,0,3,1,2,1,2,0,3,2,2,1,0,2,0,3,3,3,1,0,0,0,3,0,0,0,3,0,0,0,1,3,3,2,0,0,0,0,0,0,0,0,0,0,0,0,0,0,0,0,0,0,0,0,0,0,0,0,0,0,0,0,0,0,0,0,0,0,0,0,0,0,0,0,0,0],"split_type":[0,0,0,0,0,0,0,0,0,0,0,0,0,0,0,0,0,0,0,0,0,0,0,0,0,0,0,0,0,0,0,0,0,0,0,0,0,0,0,0,0,0,0,0,0,0,0,0,0,0,0,0,0,0,0,0,0,0,0,0,0,0,0,0,0,0,0,0,0,0,0,0,0,0,0,0,0,0,0,0,0,0,0,0,0,0,0,0,0,0,0,0,0,0,0,0,0,0,0],"sum_hessian":[2.396E3,2.123E3,2.73E2,2.095E3,2.8E1,1.87E2,8.6E1,6.5E2,1.445E3,2.4E1,4E0,1.59E2,2.8E1,1.9E1,6.7E1,5.99E2,5.1E1,1.43E3,1.5E1,9E0,1.5E1,1.57E2,2E0,2.5E1,3E0,1E1,9E0,1.7E1,5E1,5.66E2,3.3E1,2.8E1,2.3E1,1.167E3,2.63E2,5E0,1E1,3E0,6E0,7E0,8E0,1.15E2,4.2E1,1E0,1E0,2.4E1,1E0,2E0,1E0,8E0,2E0,2E0,7E0,1.3E1,4E0,3.9E1,1.1E1,8E0,5.58E2,5E0,2.8E1,1.4E1,1.4E1,8E0,1.5E1,1.018E3,1.49E2,1.27E2,1.36E2,1E0,4E0,4E0,6E0,1E0,2E0,3E0,3E0,3E0,4E0,5E0,3E0,1.08E2,7E0,1.2E1,3E1,1E0,2.3E1,5E0,3E0,1E0,6E0,9E0,4E0,1E0,3E0,2.4E1,1.5E1,7E0,4E0],"tree_param":{"num_deleted":"0","num_feature":"4","num_nodes":"99","size_leaf_vector":"1"}},{"base_weights":[4.2330742E-2,2.7485666E-1,-4.6668524E-1,1.9698884E-1,3.5647116E0,-1.8244317E0,-6.997242E-2,2.757681E-1,-2.427032E0,8.705748E0,2.0303412E-1,-4.205858E-1,-2.9021816E0,2.770775E0,-2.7312687E-1,2.4055915E-1,5.2215643E0,-7.4245667E0,-8.75683E-1,3.4581409E0,5.5528007E0,-1.9924024E0,7.121411E0,-6.076773E0,8.634015E-1,-4.8355484E0,-1.4945177E0,3.762331E0,-1.4172814E0,-2.5288603E0,-1.4606808E-1,8.111384E-1,-5.2465033E-2,5.646709E0,1.9792479E0,3.260937E-2,-2.4566293E0,-3.5554342E0,2.863705E0,4.673634E0,6.8819916E-1,5.0519037E0,-5.632229E0,5.824038E0,-1.1633937E0,-6.6997123E0,3.032155E-1,2.8435915E0,-2.3903823E0,-5.5155554E0,-1.4260747E0,2.5186663E0,-3.4113376E0,6.4372425E0,-1.259615E0,-4.5518227E0,3.3503938E0,5.1631707E-1,-7.353962E-1,1.3794409E-1,1.0613859E0,-6.2878805E-1,2.2275627E-2,-1.9913608E0,1.102274E0,-1.802127E0,7.668806E-1,2.8310843E0,-9.8920995E-1,1.2576083E0,-7.039073E-1,-1.6519655E0,4.3042154E0,-1.9501106E0,-1.714922E-1,-1.7895527E-1,-2.3265467E0,5.376023E-1,4.459578E0,-1.4240587E0,4.150127E-1,-2.1793133E-1,-1.8453223E0,-9.350074E-1,3.1311437E-1,3.6472065E0,-2.5864232E-1,-2.1550338E0,-4.4063756E-1,2.7867894E0,-4.226353E-1,-9.2338705E-1,1.080343E0,-1.7886319E0,1.9102025E0,3.5188212E0,-4.19253E-1,-4.498359E-1,2.6516026E-1,-2.4974614E-1,1.3963776E0],"categories":[],"categories_nodes":[],"categories_segments":[],"categories_sizes":[],"default_left":[0,0,0,0,0,0,0,0,0,0,0,0,0,0,0,0,0,0,0,0,0,0,0,0,0,0,0,0,0,0,0,0,0,0,0,0,0,0,0,0,0,0,0,0,0,0,0,0,0,0,0,0,0,0,0,0,0,0,0,0,0,0,0,0,0,0,0,0,0,0,0,0,0,0,0,0,0,0,0,0,0,0,0,0,0,0,0,0,0,0,0,0,0,0,0,0,0,0,0,0,0],"id":9,"left_children":[1,3,5,7,9,11,13,15,17,19,21,23,25,27,29,31,33,35,37,39,-1,41,43,45,47,49,51,53,-1,55,57,59,61,-1,63,-1,-1,65,67,-1,69,71,73,-1,-1,75,-1,77,79,81,83,85,87,89,91,93,95,97,99,-1,-1,-1,-1,-1,-1,-1,-1,-1,-1,-1,-1,-1,-1,-1,-1,-1,-1,-1,-1,-1,-1,-1,-1,-1,-1,-1,-1,-1,-1,-1,-1,-1,-1,-1,-1,-1,-1,-1,-1,-1,-1],"loss_changes":[2.838358E2,4.2095993E2,4.0492615E2,3.3327927E2,6.549677E2,2.5598846E2,3.3721222E2,2.7091904E2,3.5788574E2,7.076726E2,3.7872128E2,5.499321E2,2.5404016E2,3.0761282E2,1.5583348E2,2.596941E2,4.478249E2,6.421594E1,3.80945E2,3.585868E2,0E0,5.1561444E2,8.8651526E2,6.858258E1,4.062701E2,8.487305E1,4.4706747E2,4.7827258E2,0E0,3.601622E2,2.0219695E2,5.0323788E2,2.6609296E2,0E0,1.7044916E2,0E0,0E0,3.4499905E2,6.790885E2,0E0,1.1616166E2,7.660259E2,5.3396942E1,0E0,0E0,7.911438E1,0E0,4.6639124E2,2.1999352E2,9.596954E1,3.665667E1,6.2962573E2,2.7522116E2,5.2776465E2,1.25984924E2,3.767433E2,3.3465378E2,1.8210422E2,1.4726422E2,0E0,0E0,0E0,0E0,0E0,0E0,0E0,0E0,0E0,0E0,0E0,0E0,0E0,0E0,0E0,0E0,0E0,0E0,0E0,0E0,0E0,0E0,0E0,0E0,0E0,0E0,0E0,0E0,0E0,0E0,0E0,0E0,0E0,0E0,0E0,0E0,0E0,0E0,0E0,0E0,0E0,0E0],"parents":[2147483647,0,0,1,1,2,2,3,3,4,4,5,5,6,6,7,7,8,8,9,9,10,10,11,11,12,12,13,13,14,14,15,15,16,16,17,17,18,18,19,19,21,21,22,22,23,23,24,24,25,25,26,26,27,27,29,29,30,30,31,31,32,32,34,34,37,37,38,38,40,40,41,41,42,42,45,45,47,47,48,48,49,49,50,50,51,51,52,52,53,53,54,54,55,55,56,56,57,57,58,58],"right_children":[2,4,6,8,10,12,14,16,18,20,22,24,26,28,30,32,34,36,38,40,-1,42,44,46,48,50,52,54,-1,56,58,60,62,-1,64,-1,-1,66,68,-1,70,72,74,-1,-1,76,-1,78,80,82,84,86,88,90,92,94,96,98,100,-1,-1,-1,-1,-1,-1,-1,-1,-1,-1,-1,-1,-1,-1,-1,-1,-1,-1,-1,-1,-1,-1,-1,-1,-1,-1,-1,-1,-1,-1,-1,-1,-1,-1,-1,-1,-1,-1,-1,-1,-1,-1],"split_conditions":[1.964228E1,1.9386593E1,2.109305E1,1.9083395E1,3.5435827E0,2.2443501E2,2.1322214E1,1.8998314E1,1.2915E0,2.033167E0,2.5146318E2,1.9917469E1,2.658102E2,3.064445E2,2.1611996E1,1.6023271E2,1.964286E2,1.716203E1,8E-1,-4.2772503E0,5.5528007E0,7.4290004E0,2.8024707E2,2.1937184E2,7.9685836E0,1.5918583E1,1.9917469E1,2.5999997E0,-1.4172814E0,8.526917E0,2.4336637E1,1.4669485E2,1.7189687E2,5.646709E0,1.9060832E0,3.260937E-2,-2.4566293E0,1.5851916E1,3.3999999E0,4.673634E0,1.9562946E1,5.647751E0,1.6289415E1,5.824038E0,-1.1633937E0,3E-1,3.032155E-1,2.1057391E2,1.72915E1,-6.4808327E-1,3E-1,2.7609E2,2.907883E2,1.296025E1,5.6E0,2.8384848E2,1.02165E1,8.9873795E1,1.9070665E1,1.3794409E-1,1.0613859E0,-6.2878805E-1,2.2275627E-2,-1.9913608E0,1.102274E0,-1.802127E0,7.668806E-1,2.8310843E0,-9.8920995E-1,1.2576083E0,-7.039073E-1,-1.6519655E0,4.3042154E0,-1.9501106E0,-1.714922E-1,-1.7895527E-1,-2.3265467E0,5.376023E-1,4.459578E0,-1.4240587E0,4.150127E-1,-2.1793133E-1,-1.8453223E0,-9.350074E-1,3.1311437E-1,3.6472065E0,-2.5864232E-1,-2.1550338E0,-4.4063756E-1,2.7867894E0,-4.226353E-1,-9.2338705E-1,1.080343E0,-1.7886319E0,1.9102025E0,3.5188212E0,-4.19253E-1,-4.498359E-1,2.6516026E-1,-2.4974614E-1,1.3963776E0],"split_indices":[2,2,2,2,0,3,2,2,0,0,3,2,3,3,2,3,3,3,1,0,0,0,3,3,0,0,2,1,0,0,2,3,3,0,0,0,0,0,1,0,2,0,0,0,0,1,0,3,0,0,1,3,3,0,1,3,0,3,0,0,0,0,0,0,0,0,0,0,0,0,0,0,0,0,0,0,0,0,0,0,0,0,0,0,0,0,0,0,0,0,0,0,0,0,0,0,0,0,0,0,0],"split_type":[0,0,0,0,0,0,0,0,0,0,0,0,0,0,0,0,0,0,0,0,0,0,0,0,0,0,0,0,0,0,0,0,0,0,0,0,0,0,0,0,0,0,0,0,0,0,0,0,0,0,0,0,0,0,0,0,0,0,0,0,0,0,0,0,0,0,0,0,0,0,0,0,0,0,0,0,0,0,0,0,0,0,0,0,0,0,0,0,0,0,0,0,0,0,0,0,0,0,0,0,0],"sum_hessian":[2.396E3,1.645E3,7.51E2,1.608E3,3.7E1,1.69E2,5.82E2,1.562E3,4.6E1,1.4E1,2.3E1,7.4E1,9.5E1,3.8E1,5.44E2,1.552E3,1E1,1E1,3.6E1,1E1,4E0,1.8E1,5E0,1.3E1,6.1E1,3.9E1,5.6E1,3.4E1,4E0,2.8E1,5.16E2,5.26E2,1.026E3,1E0,9E0,1E0,9E0,2.1E1,1.5E1,1E0,9E0,6E0,1.2E1,2E0,3E0,1.2E1,1E0,3.8E1,2.3E1,3.2E1,7E0,1.8E1,3.8E1,2.2E1,1.2E1,2.1E1,7E0,2.43E2,2.73E2,4.67E2,5.9E1,5.9E1,9.67E2,1E0,8E0,1.5E1,6E0,7E0,8E0,4E0,5E0,3E0,3E0,1E1,2E0,2E0,1E1,3.6E1,2E0,1.4E1,9E0,4E0,2.8E1,4E0,3E0,4E0,1.4E1,1.2E1,2.6E1,1.6E1,6E0,9E0,3E0,1.9E1,2E0,2E0,5E0,3.7E1,2.06E2,2.69E2,4E0],"tree_param":{"num_deleted":"0","num_feature":"4","num_nodes":"101","size_leaf_vector":"1"}},{"base_weights":[4.001347E-2,1.9387487E-2,4.137812E0,3.5767734E-1,-2.1421875E-1,7.565858E0,2.1544795E0,5.3683907E-1,-1.8309923E0,-3.2407025E-1,1.8051676E0,4.068329E-1,2.7551215E0,-3.1435457E-1,1.5957333E0,1.0577204E0,-3.3134353E-1,-5.629037E0,-8.5096467E-1,-1.6826202E0,-1.9879319E-1,-1.6357051E0,2.9610114E0,-5.974972E-1,3.0666333E-1,8.371221E-1,4.956467E0,2.250743E-1,-2.106416E0,-6.9470205E0,-2.6782656E-1,1.3284687E0,-1.6736784E0,-1.972724E0,2.8836288E0,4.0300795E-1,-5.449597E-1,-2.8390965E0,3.5867872E0,5.195474E0,1.313931E0,4.6317974E-1,-3.5628968E-1,2.1865337E0,-7.102589E-1,-1.1694311E-2,1.8545598E0,-1.0389546E0,8.5039914E-1,-2.5508218E0,-1.192254E0,6.1556685E-1,-5.1750857E-1,1.6044241E0,-8.5162514E-1,-9.3322897E-1,5.9775156E-1,-1.0832798E0,-1.2404483E-1,-1.4820547E-1,3.7101185E-1,-8.5690415E-1,-1.1175758E-1,-1.8612758E0,-3.6010712E-1,1.4286078E0,9.16071E-3,5.166637E-1,2.8615484E0,-4.8979167E-2,2.0471935E0],"categories":[],"categories_nodes":[],"categories_segments":[],"categories_sizes":[],"default_left":[0,0,0,0,0,0,0,0,0,0,0,0,0,0,0,0,0,0,0,0,0,0,0,0,0,0,0,0,0,0,0,0,0,0,0,0,0,0,0,0,0,0,0,0,0,0,0,0,0,0,0,0,0,0,0,0,0,0,0,0,0,0,0,0,0,0,0,0,0,0,0],"id":10,"left_children":[1,3,5,7,9,11,13,15,17,19,21,-1,-1,23,-1,25,27,29,31,33,35,37,39,-1,-1,41,43,45,47,49,51,53,55,57,-1,59,61,63,65,67,69,-1,-1,-1,-1,-1,-1,-1,-1,-1,-1,-1,-1,-1,-1,-1,-1,-1,-1,-1,-1,-1,-1,-1,-1,-1,-1,-1,-1,-1,-1],"loss_changes":[2.0251694E2,1.8863414E2,6.528699E1,3.8330566E2,3.1381262E2,2.7732315E1,7.198863E1,4.0825302E2,2.7065186E2,2.2772696E2,2.951725E2,0E0,0E0,1.5486845E1,0E0,4.8092297E2,3.352983E2,1.0412918E2,1.098064E2,3.8922238E2,2.560408E2,1.2959259E2,1.9559222E2,0E0,0E0,7.674813E2,5.296377E2,4.0762793E2,5.528319E2,2.1707458E1,1.7060745E1,2.9994205E2,2.3801732E2,2.8204123E2,0E0,3.363952E2,3.09815E2,8.07865E1,1.6572361E1,3.30515E2,2.6971478E2,0E0,0E0,0E0,0E0,0E0,0E0,0E0,0E0,0E0,0E0,0E0,0E0,0E0,0E0,0E0,0E0,0E0,0E0,0E0,0E0,0E0,0E0,0E0,0E0,0E0,0E0,0E0,0E0,0E0,0E0],"parents":[2147483647,0,0,1,1,2,2,3,3,4,4,5,5,6,6,7,7,8,8,9,9,10,10,13,13,15,15,16,16,17,17,18,18,19,19,20,20,21,21,22,22,25,25,26,26,27,27,28,28,29,29,30,30,31,31,32,32,33,33,35,35,36,36,37,37,38,38,39,39,40,40],"right_children":[2,4,6,8,10,12,14,16,18,20,22,-1,-1,24,-1,26,28,30,32,34,36,38,40,-1,-1,42,44,46,48,50,52,54,56,58,-1,60,62,64,66,68,70,-1,-1,-1,-1,-1,-1,-1,-1,-1,-1,-1,-1,-1,-1,-1,-1,-1,-1,-1,-1,-1,-1,-1,-1,-1,-1,-1,-1,-1,-1],"split_conditions":[2.4068586E1,1E-1,1.2849528E1,1.9254E1,1.9070665E1,1.1525623E1,1.5124284E1,2.611394E2,1.9756083E1,2E-1,4E-1,4.068329E-1,2.7551215E0,1.353236E1,1.5957333E0,2.575334E2,9.356084E0,2.4094548E2,2.0399834E1,3.0631746E1,1.839839E2,2.5146318E2,1.4830076E1,-5.974972E-1,3.0666333E-1,1.7873556E1,1.5781081E1,7.858168E0,3.3694168E2,1.4799459E1,1.9412334E1,1.5188415E1,1.6375053E1,1.6800856E1,2.8836288E0,4.0519166E0,1.94278E2,1.288981E1,2.0399834E1,1.3684735E1,5.8000007E0,4.6317974E-1,-3.5628968E-1,2.1865337E0,-7.102589E-1,-1.1694311E-2,1.8545598E0,-1.0389546E0,8.5039914E-1,-2.5508218E0,-1.192254E0,6.1556685E-1,-5.1750857E-1,1.6044241E0,-8.5162514E-1,-9.3322897E-1,5.9775156E-1,-1.0832798E0,-1.2404483E-1,-1.4820547E-1,3.7101185E-1,-8.5690415E-1,-1.1175758E-1,-1.8612758E0,-3.6010712E-1,1.4286078E0,9.16071E-3,5.166637E-1,2.8615484E0,-4.8979167E-2,2.0471935E0],"split_indices":[0,1,2,0,0,2,2,3,0,1,1,0,0,2,0,3,0,3,0,2,3,3,2,0,0,2,0,0,3,2,0,2,2,2,0,0,3,2,0,2,1,0,0,0,0,0,0,0,0,0,0,0,0,0,0,0,0,0,0,0,0,0,0,0,0,0,0,0,0,0,0],"split_type":[0,0,0,0,0,0,0,0,0,0,0,0,0,0,0,0,0,0,0,0,0,0,0,0,0,0,0,0,0,0,0,0,0,0,0,0,0,0,0,0,0,0,0,0,0,0,0,0,0,0,0,0,0,0,0,0,0,0,0,0,0,0,0,0,0,0,0,0,0,0,0],"sum_hessian":[2.396E3,2.385E3,1.1E1,9.74E2,1.411E3,3E0,8E0,9.01E2,7.3E1,1.339E3,7.2E1,1E0,2E0,5E0,3E0,5.63E2,3.38E2,1.4E1,5.9E1,1.12E2,1.227E3,1.8E1,5.4E1,2E0,3E0,5.34E2,2.9E1,2.58E2,8E1,1.1E1,3E0,1.6E1,4.3E1,1.1E2,2E0,4.48E2,7.79E2,1.5E1,3E0,2.2E1,3.2E1,3.96E2,1.38E2,2.2E1,7E0,2.48E2,1E1,6.3E1,1.7E1,6E0,5E0,1E0,2E0,8E0,8E0,3.1E1,1.2E1,5.3E1,5.7E1,2.16E2,2.32E2,5.3E1,7.26E2,4E0,1.1E1,2E0,1E0,1.3E1,9E0,2.6E1,6E0],"tree_param":{"num_deleted":"0","num_feature":"4","num_nodes":"71","size_leaf_vector":"1"}},{"base_weights":[3.218092E-2,-1.779699E-3,2.0333548E0,1.5331723E-1,-4.474576E-1,2.3116162E0,-2.1690738E0,8.458788E-2,6.4104705E0,-4.074339E0,-1.3689218E-1,1.4378381E0,5.9758E0,7.317753E-1,-1.7078586E0,-7.486171E-1,2.746711E-1,8.498095E0,2.1657646E0,-6.878105E0,-2.5914724E0,-3.0822697E-1,2.3750613E0,3.5468922E0,3.1795466E-1,3.5740343E-1,8.151678E0,9.816289E-2,-2.4274049E0,1.0077539E1,1.9045031E-1,-2.2530928E0,1.0642518E1,-9.522469E0,-4.810443E0,2.9349701E0,-3.283908E0,-4.505005E-1,2.5666456E0,5.8285956E0,1.6964622E-1,5.211954E-1,5.98144E0,-6.030749E-1,2.874546E0,-2.8456852E-1,4.4540006E-1,3.120021E0,9.558178E-1,-1.386858E-1,7.9176646E-1,-1.2324607E0,3.1449196E-1,5.636507E-1,6.3539877E0,-2.0982237E0,6.791729E-2,-2.6062872E0,2.571128E-1,4.7308645E0,1.240985E0,-6.8265724E-1,-3.1550257E0,-5.655716E-1,-1.7015221E0,1.9830386E-1,-1.6145316E0,-7.378819E-2,-8.2479507E-1,1.3645016E0,2.0541602E-1,4.891519E0,8.1712884E-1,-5.3956103E-1,6.3710755E-1,-5.940863E-1,4.2526487E-1,6.593105E-1,2.1971653E0,-6.967966E-1,4.8653543E-1,1.0462817E0,3.2968542E-1],"categories":[],"categories_nodes":[],"categories_segments":[],"categories_sizes":[],"default_left":[0,0,0,0,0,0,0,0,0,0,0,0,0,0,0,0,0,0,0,0,0,0,0,0,0,0,0,0,0,0,0,0,0,0,0,0,0,0,0,0,0,0,0,0,0,0,0,0,0,0,0,0,0,0,0,0,0,0,0,0,0,0,0,0,0,0,0,0,0,0,0,0,0,0,0,0,0,0,0,0,0,0,0],"id":11,"left_children":[1,3,5,7,9,11,13,15,17,19,21,23,25,-1,-1,27,29,-1,31,33,35,37,39,41,43,45,47,49,51,53,55,57,59,61,63,-1,65,67,69,71,73,75,77,79,81,-1,-1,-1,-1,-1,-1,-1,-1,-1,-1,-1,-1,-1,-1,-1,-1,-1,-1,-1,-1,-1,-1,-1,-1,-1,-1,-1,-1,-1,-1,-1,-1,-1,-1,-1,-1,-1,-1],"loss_changes":[1.6290637E2,1.6306128E2,5.1789E1,7.5204535E2,6.854101E2,1.1307175E2,6.260259E1,2.7451685E2,1.7062039E3,1.817409E2,2.4260841E2,7.445287E1,8.266116E1,0E0,0E0,4.5798187E2,1.1630099E3,0E0,6.6075714E2,4.167511E1,3.1489395E2,2.1670894E2,2.7320435E2,7.791075E1,5.3536884E1,5.824798E0,2.268805E1,3.0740878E2,6.352391E2,1.0525116E3,3.6308658E2,2.475928E2,1.3490314E2,1.9302002E1,1.702156E1,0E0,2.683864E2,2.3583417E2,9.012062E1,4.109764E2,9.227567E1,1.6260443E1,1.4381027E1,6.880586E1,2.6985626E0,0E0,0E0,0E0,0E0,0E0,0E0,0E0,0E0,0E0,0E0,0E0,0E0,0E0,0E0,0E0,0E0,0E0,0E0,0E0,0E0,0E0,0E0,0E0,0E0,0E0,0E0,0E0,0E0,0E0,0E0,0E0,0E0,0E0,0E0,0E0,0E0,0E0,0E0],"parents":[2147483647,0,0,1,1,2,2,3,3,4,4,5,5,6,6,7,7,8,8,9,9,10,10,11,11,12,12,15,15,16,16,18,18,19,19,20,20,21,21,22,22,23,23,24,24,25,25,26,26,27,27,28,28,29,29,30,30,31,31,32,32,33,33,34,34,36,36,37,37,38,38,39,39,40,40,41,41,42,42,43,43,44,44],"right_children":[2,4,6,8,10,12,14,16,18,20,22,24,26,-1,-1,28,30,-1,32,34,36,38,40,42,44,46,48,50,52,54,56,58,60,62,64,-1,66,68,70,72,74,76,78,80,82,-1,-1,-1,-1,-1,-1,-1,-1,-1,-1,-1,-1,-1,-1,-1,-1,-1,-1,-1,-1,-1,-1,-1,-1,-1,-1,-1,-1,-1,-1,-1,-1,-1,-1,-1,-1,-1,-1],"split_conditions":[2.2203997E1,1.3931081E1,2.1261345E1,1.3699833E1,1.4416499E1,1.7377226E1,2.3418585E1,1.0640259E2,9.817524E1,1.6700537E2,8.900002E0,1.2959999E1,2.2697752E1,7.317753E-1,-1.7078586E0,6.935397E1,1.10509605E2,8.498095E0,2.061766E1,3E-1,1.6808882E2,3.3694168E2,1.19E1,2.3418585E1,1.9921053E2,1E-1,6E-1,5.7930183E1,2.3E0,7.5415015E0,1.1181908E2,1.2429127E1,2.1650938E1,1.1165805E1,1.4045666E1,2.9349701E0,1.4122749E1,2.7278113E2,1.59852495E1,1.0356005E2,1.59852495E1,1.0805999E1,1.1525623E1,2.4068586E1,2.3418585E1,-2.8456852E-1,4.4540006E-1,3.120021E0,9.558178E-1,-1.386858E-1,7.9176646E-1,-1.2324607E0,3.1449196E-1,5.636507E-1,6.3539877E0,-2.0982237E0,6.791729E-2,-2.6062872E0,2.571128E-1,4.7308645E0,1.240985E0,-6.8265724E-1,-3.1550257E0,-5.655716E-1,-1.7015221E0,1.9830386E-1,-1.6145316E0,-7.378819E-2,-8.2479507E-1,1.3645016E0,2.0541602E-1,4.891519E0,8.1712884E-1,-5.3956103E-1,6.3710755E-1,-5.940863E-1,4.2526487E-1,6.593105E-1,2.1971653E0,-6.967966E-1,4.8653543E-1,1.0462817E0,3.2968542E-1],"split_indices":[0,0,2,0,0,2,0,3,3,3,1,2,0,0,0,3,3,0,2,1,3,3,1,0,3,1,1,3,1,0,3,2,2,2,0,0,0,3,0,3,0,2,2,0,0,0,0,0,0,0,0,0,0,0,0,0,0,0,0,0,0,0,0,0,0,0,0,0,0,0,0,0,0,0,0,0,0,0,0,0,0,0,0],"split_type":[0,0,0,0,0,0,0,0,0,0,0,0,0,0,0,0,0,0,0,0,0,0,0,0,0,0,0,0,0,0,0,0,0,0,0,0,0,0,0,0,0,0,0,0,0,0,0,0,0,0,0,0,0,0,0,0,0,0,0,0,0,0,0,0,0,0,0,0,0,0,0,0,0,0,0,0,0,0,0,0,0,0,0],"sum_hessian":[2.396E3,2.357E3,3.9E1,1.749E3,6.08E2,3.7E1,2E0,1.731E3,1.8E1,4.7E1,5.61E2,3.1E1,6E0,1E0,1E0,3.21E2,1.41E3,2E0,1.6E1,1.5E1,3.2E1,5.26E2,3.5E1,1E1,2.1E1,2E0,4E0,2.14E2,1.07E2,1.1E1,1.399E3,1.1E1,5E0,5E0,1E1,1E0,3.1E1,5.02E2,2.4E1,1.3E1,2.2E1,5E0,5E0,1.6E1,5E0,1E0,1E0,2E0,2E0,1.76E2,3.8E1,7.2E1,3.5E1,7E0,4E0,6E0,1.393E3,3E0,8E0,2E0,3E0,1E0,4E0,3E0,7E0,1.1E1,2E1,4.62E2,4E1,1.1E1,1.3E1,2E0,1.1E1,1.1E1,1.1E1,1E0,4E0,2E0,3E0,9E0,7E0,3E0,2E0],"tree_param":{"num_deleted":"0","num_feature":"4","num_nodes":"83","size_leaf_vector":"1"}},{"base_weights":[3.3268783E-2,1.396829E0,-1.6854819E-2,2.7964983E0,-6.8259835E-1,-3.215703E-1,1.6980845E-1,1.7873785E0,7.307126E0,-5.624919E0,7.538718E-1,1.0046408E0,-6.961525E-1,1.2967929E0,-1.10615335E-1,2.6281745E0,-5.128306E0,9.270606E0,3.8822205E0,-7.6520104E0,3.0423737E-1,2.590959E0,-1.0110011E0,-3.1085339E0,1.3918281E0,-5.479562E0,-5.737434E-1,1.8251455E0,-2.8092182E0,-1.90688E0,1.2907605E-2,6.2205944E0,9.9470276E-1,-2.1711872E0,4.961449E-1,3.1207972E0,7.1136075E-1,1.7884787E0,-6.65292E-1,-2.574761E0,-4.499076E-1,1.2196736E0,-1.0827668E0,-7.065878E-1,5.989447E0,6.6790545E-1,-3.6406784E0,-4.240561E0,1.6306953E0,1.6641543E0,-5.4984503E0,-2.3922021E0,-7.9580812E0,-4.49145E-1,-4.223317E0,-6.17764E-1,2.8328848E0,1.4293556E0,-3.1947887E0,-3.32985E0,2.3874986E0,3.6038272E0,-7.9354756E-2,1.1038568E0,3.7851908E0,-1.0557042E-1,2.1778386E0,-6.150496E-1,6.648289E-1,2.395711E0,1.9976158E-1,-1.529634E0,5.625538E-1,-1.4576074E0,3.67408E-1,1.0378218E0,-1.5296923E0,1.2831945E0,-2.031849E-1,2.2930966E-1,1.6730531E0,-2.3208468E0,1.1891676E0,4.8838523E-1,-9.294646E-1,-2.7185946E0,1.3096792E-1,-1.2011694E-2,-3.305754E-1,-1.7440003E0,1.3155279E0,2.619176E-1,-2.5552015E0,2.1164942E0,3.9925787E-1,-1.1048576E0,8.2525104E-1,-2.2707052E0,-2.845238E-1,4.5237823E0,2.533988E-1,2.927378E0,-8.423064E-1,-5.874869E-1,1.1518823E-2],"categories":[],"categories_nodes":[],"categories_segments":[],"categories_sizes":[],"default_left":[0,0,0,0,0,0,0,0,0,0,0,0,0,0,0,0,0,0,0,0,0,0,0,0,0,0,0,0,0,0,0,0,0,0,0,0,0,0,0,0,0,0,0,0,0,0,0,0,0,0,0,0,0,0,0,0,0,0,0,0,0,0,0,0,0,0,0,0,0,0,0,0,0,0,0,0,0,0,0,0,0,0,0,0,0,0,0,0,0,0,0,0,0,0,0,0,0,0,0,0,0,0,0,0,0],"id":12,"left_children":[1,3,5,7,9,11,13,15,17,19,21,23,25,27,29,31,33,35,37,39,41,43,45,47,49,51,53,55,57,59,61,63,65,-1,-1,-1,-1,-1,-1,-1,-1,-1,-1,67,69,71,73,75,77,79,81,83,85,87,89,91,93,-1,95,97,99,101,103,-1,-1,-1,-1,-1,-1,-1,-1,-1,-1,-1,-1,-1,-1,-1,-1,-1,-1,-1,-1,-1,-1,-1,-1,-1,-1,-1,-1,-1,-1,-1,-1,-1,-1,-1,-1,-1,-1,-1,-1,-1,-1],"loss_changes":[1.6385023E2,2.4930229E2,1.3161617E2,2.1907932E2,2.5272281E2,4.3736472E2,4.5365112E2,2.6350934E2,2.4532074E1,9.847955E1,9.340178E1,3.1328485E2,3.985317E2,6.255819E2,2.5518651E2,2.2266888E2,8.34861E1,1.4385559E1,7.6640175E1,2.147818E1,5.8833153E1,1.6112549E2,6.8656364E1,9.811899E1,3.4315015E2,1.11048004E2,3.0277295E2,6.270513E2,1.1158853E2,4.601471E2,3.5710333E2,1.4862827E2,2.3876685E2,0E0,0E0,0E0,0E0,0E0,0E0,0E0,0E0,0E0,0E0,3.595818E1,6.9073074E1,7.918081E1,4.150692E1,1.10175964E2,2.7330318E1,6.012795E2,1.788828E2,3.058826E1,8.735773E1,1.7327353E2,3.266174E2,8.907008E2,1.1321157E3,0E0,1.0299106E2,5.581589E2,3.5930832E2,1.0927389E3,2.326049E2,0E0,0E0,0E0,0E0,0E0,0E0,0E0,0E0,0E0,0E0,0E0,0E0,0E0,0E0,0E0,0E0,0E0,0E0,0E0,0E0,0E0,0E0,0E0,0E0,0E0,0E0,0E0,0E0,0E0,0E0,0E0,0E0,0E0,0E0,0E0,0E0,0E0,0E0,0E0,0E0,0E0,0E0],"parents":[2147483647,0,0,1,1,2,2,3,3,4,4,5,5,6,6,7,7,8,8,9,9,10,10,11,11,12,12,13,13,14,14,15,15,16,16,17,17,18,18,19,19,20,20,21,21,22,22,23,23,24,24,25,25,26,26,27,27,28,28,29,29,30,30,31,31,32,32,43,43,44,44,45,45,46,46,47,47,48,48,49,49,50,50,51,51,52,52,53,53,54,54,55,55,56,56,58,58,59,59,60,60,61,61,62,62],"right_children":[2,4,6,8,10,12,14,16,18,20,22,24,26,28,30,32,34,36,38,40,42,44,46,48,50,52,54,56,58,60,62,64,66,-1,-1,-1,-1,-1,-1,-1,-1,-1,-1,68,70,72,74,76,78,80,82,84,86,88,90,92,94,-1,96,98,100,102,104,-1,-1,-1,-1,-1,-1,-1,-1,-1,-1,-1,-1,-1,-1,-1,-1,-1,-1,-1,-1,-1,-1,-1,-1,-1,-1,-1,-1,-1,-1,-1,-1,-1,-1,-1,-1,-1,-1,-1,-1,-1,-1],"split_conditions":[9.6932955E0,8.618585E0,4.0519166E0,5.647751E0,7.499381E1,1.4003028E1,6.9415E0,3.24775E0,1E-1,1.5918583E1,4E-1,1.0464797E1,1.4145756E1,3.023301E2,7.858168E0,7.499381E1,5.2852497E0,8.326917E0,7.6644173E0,9E-1,1.6376917E1,9.178235E0,9.178235E0,2.4690529E2,3.5435827E0,7.748334E-1,3.7435834E0,1.5281989E1,4.4165E0,1E0,8.237334E0,5.5599094E1,1.5394164E0,-2.1711872E0,4.961449E-1,3.1207972E0,7.1136075E-1,1.7884787E0,-6.65292E-1,-2.574761E0,-4.499076E-1,1.2196736E0,-1.0827668E0,1E-1,1.8547752E1,9.493584E0,9.300001E0,4.3674377E1,-1.2480834E0,1.7373334E0,4E-1,3.054752E0,3.8727503E0,1E0,2.7871534E1,1.4773164E1,1.7581125E1,1.4293556E0,3.5846573E2,1.8343504E2,1.0000001E0,1.8931668E2,1.1525623E1,1.1038568E0,3.7851908E0,-1.0557042E-1,2.1778386E0,-6.150496E-1,6.648289E-1,2.395711E0,1.9976158E-1,-1.529634E0,5.625538E-1,-1.4576074E0,3.67408E-1,1.0378218E0,-1.5296923E0,1.2831945E0,-2.031849E-1,2.2930966E-1,1.6730531E0,-2.3208468E0,1.1891676E0,4.8838523E-1,-9.294646E-1,-2.7185946E0,1.3096792E-1,-1.2011694E-2,-3.305754E-1,-1.7440003E0,1.3155279E0,2.619176E-1,-2.5552015E0,2.1164942E0,3.9925787E-1,-1.1048576E0,8.2525104E-1,-2.2707052E0,-2.845238E-1,4.5237823E0,2.533988E-1,2.927378E0,-8.423064E-1,-5.874869E-1,1.1518823E-2],"split_indices":[2,0,0,0,3,2,0,0,1,0,1,2,2,3,0,3,0,0,0,1,0,2,2,3,0,0,0,2,0,1,0,3,0,0,0,0,0,0,0,0,0,0,0,1,0,0,1,3,0,0,1,3,0,1,2,2,2,0,3,3,1,3,2,0,0,0,0,0,0,0,0,0,0,0,0,0,0,0,0,0,0,0,0,0,0,0,0,0,0,0,0,0,0,0,0,0,0,0,0,0,0,0,0,0,0],"split_type":[0,0,0,0,0,0,0,0,0,0,0,0,0,0,0,0,0,0,0,0,0,0,0,0,0,0,0,0,0,0,0,0,0,0,0,0,0,0,0,0,0,0,0,0,0,0,0,0,0,0,0,0,0,0,0,0,0,0,0,0,0,0,0,0,0,0,0,0,0,0,0,0,0,0,0,0,0,0,0,0,0,0,0,0,0,0,0,0,0,0,0,0,0,0,0,0,0,0,0,0,0,0,0,0,0],"sum_hessian":[2.396E3,8.4E1,2.312E3,5E1,3.4E1,8.78E2,1.434E3,4.2E1,8E0,7E0,2.7E1,1.93E2,6.85E2,2.85E2,1.149E3,3.8E1,4E0,4E0,4E0,5E0,2E0,1.3E1,1.4E1,1.6E1,1.77E2,1.6E1,6.69E2,2.53E2,3.2E1,7.3E1,1.076E3,1.1E1,2.7E1,3E0,1E0,3E0,1E0,3E0,1E0,4E0,1E0,1E0,1E0,7E0,6E0,9E0,5E0,1.3E1,3E0,1.71E2,6E0,8E0,8E0,6.48E2,2.1E1,7.4E1,1.79E2,1E0,3.1E1,5.5E1,1.8E1,2.6E1,1.05E3,9E0,2E0,2.3E1,4E0,5E0,2E0,4E0,2E0,1E0,8E0,4E0,1E0,1E0,1.2E1,1E0,2E0,1.4E2,3.1E1,5E0,1E0,1E0,7E0,7E0,1E0,3.99E2,2.49E2,1.8E1,3E0,6.3E1,1.1E1,4.6E1,1.33E2,2.9E1,2E0,1.9E1,3.6E1,1E0,1.7E1,1.3E1,1.3E1,6.1E1,9.89E2],"tree_param":{"num_deleted":"0","num_feature":"4","num_nodes":"105","size_leaf_vector":"1"}},{"base_weights":[2.7712258E-2,8.8423944E-1,-2.9452683E-2,3.9858334E0,2.61826E-1,-3.0750055E0,-7.336251E-4,6.8079762E0,2.2572968E0,-5.863653E-1,2.3985922E0,5.887249E-1,-5.871864E0,1.8613073E-1,-2.8134394E-1,-8.81151E-1,8.393266E0,-1.8429239E0,4.6613193E0,3.4443414E0,-1.1836417E0,4.1986637E0,7.486019E-1,1.8466816E0,-1.7598805E0,-9.642249E0,-4.9443626E-1,4.0982592E-1,-3.470276E-1,-1.9976091E0,-1.6823052E-1,3.1260273E0,-8.691765E-1,7.083279E-1,-3.9967492E0,3.208088E0,2.8790452E0,-3.3209138E0,6.068417E0,-3.4759731E0,4.1699532E-1,1.313182E0,5.6531825E0,-5.2784615E0,2.122699E0,8.119757E-1,-2.0205243E-1,-1.9327794E-1,-7.660115E-1,-3.2905674E0,-3.4574428E0,8.714405E-1,-1.755244E0,-1.5749425E-1,8.816134E-1,-4.8130608E0,-5.873852E-2,-2.3911276E0,1.6146469E0,-5.719576E-1,2.1340555E-1,-1.7456619E0,4.9376166E-1,1.4179384E0,6.7130613E-1,-1.6048223E-1,-1.2213775E0,1.3865419E-1,2.6383517E0,-4.2912367E-1,-3.2608278E0,2.1707373E0,-2.188197E-1,-2.1554604E-1,6.808641E-1,9.067177E-1,2.4616957E0,-1.8168395E0,-4.418178E-1,1.6257393E0,2.0746687E-1,-2.8115103E-1,1.9022742E-1,-1.321744E0,-1.5901136E-1,1.11271866E-1,-9.888939E-1,4.637578E-2,-1.1363035E0,3.2399323E0,2.1114375E-1,-7.415456E-1,-1.8926455E0,1.9659495E0,-1.0045149E-1,-8.7437916E-1,2.1642338E-1,1.4153734E0,-3.3493897E-1,2.313115E0,-2.0824556E-1,1.7735473E0,-6.1613647E-3],"categories":[],"categories_nodes":[],"categories_segments":[],"categories_sizes":[],"default_left":[0,0,0,0,0,0,0,0,0,0,0,0,0,0,0,0,0,0,0,0,0,0,0,0,0,0,0,0,0,0,0,0,0,0,0,0,0,0,0,0,0,0,0,0,0,0,0,0,0,0,0,0,0,0,0,0,0,0,0,0,0,0,0,0,0,0,0,0,0,0,0,0,0,0,0,0,0,0,0,0,0,0,0,0,0,0,0,0,0,0,0,0,0,0,0,0,0,0,0,0,0,0,0],"id":13,"left_children":[1,3,5,7,9,11,13,15,17,19,21,23,25,27,29,-1,31,33,35,37,39,41,43,45,47,49,51,53,55,57,59,-1,-1,-1,61,63,-1,65,67,69,71,73,75,77,79,-1,81,-1,-1,83,-1,-1,85,87,89,91,93,95,97,99,101,-1,-1,-1,-1,-1,-1,-1,-1,-1,-1,-1,-1,-1,-1,-1,-1,-1,-1,-1,-1,-1,-1,-1,-1,-1,-1,-1,-1,-1,-1,-1,-1,-1,-1,-1,-1,-1,-1,-1,-1,-1,-1],"loss_changes":[1.1739113E2,2.8852747E2,1.9661996E2,1.0658679E2,2.2976712E2,2.1864255E2,1.1687992E2,1.6369235E2,1.7615985E2,2.2315448E2,1.0378049E2,3.2794376E1,2.3853226E2,1.5971873E2,1.7263611E2,0E0,2.1326086E2,7.281972E1,4.8109207E1,2.3318318E2,2.9498474E2,6.392514E1,1.7684E2,1.2878874E1,1.8959055E0,4.5778748E1,3.0813349E1,2.5253708E2,5.0957065E2,8.204277E1,1.2908435E2,0E0,0E0,0E0,6.098487E1,4.157959E0,0E0,6.183872E0,1.3348318E2,4.8353622E2,3.804951E2,1.5231756E1,4.9064453E1,2.919403E0,7.645267E1,0E0,2.4382434E0,0E0,0E0,6.9007607E0,0E0,0E0,1.7605347E1,4.866032E2,9.0057983E2,6.845209E1,6.8312256E2,8.356857E1,5.6119514E1,4.1725833E2,5.746908E2,0E0,0E0,0E0,0E0,0E0,0E0,0E0,0E0,0E0,0E0,0E0,0E0,0E0,0E0,0E0,0E0,0E0,0E0,0E0,0E0,0E0,0E0,0E0,0E0,0E0,0E0,0E0,0E0,0E0,0E0,0E0,0E0,0E0,0E0,0E0,0E0,0E0,0E0,0E0,0E0,0E0,0E0],"parents":[2147483647,0,0,1,1,2,2,3,3,4,4,5,5,6,6,7,7,8,8,9,9,10,10,11,11,12,12,13,13,14,14,16,16,17,17,18,18,19,19,20,20,21,21,22,22,23,23,24,24,25,25,26,26,27,27,28,28,29,29,30,30,34,34,35,35,37,37,38,38,39,39,40,40,41,41,42,42,43,43,44,44,46,46,49,49,52,52,53,53,54,54,55,55,56,56,57,57,58,58,59,59,60,60],"right_children":[2,4,6,8,10,12,14,16,18,20,22,24,26,28,30,-1,32,34,36,38,40,42,44,46,48,50,52,54,56,58,60,-1,-1,-1,62,64,-1,66,68,70,72,74,76,78,80,-1,82,-1,-1,84,-1,-1,86,88,90,92,94,96,98,100,102,-1,-1,-1,-1,-1,-1,-1,-1,-1,-1,-1,-1,-1,-1,-1,-1,-1,-1,-1,-1,-1,-1,-1,-1,-1,-1,-1,-1,-1,-1,-1,-1,-1,-1,-1,-1,-1,-1,-1,-1,-1,-1],"split_conditions":[1.0594036E1,-1.6105833E0,1.0805999E1,2.349115E2,9E-1,1.3602499E0,2.4420288E2,-5.943917E0,2.8384848E2,4.7371857E1,2.8999999E0,1.0739833E1,1.1147748E1,2.1999998E0,2.4860461E2,-8.81151E-1,5E-1,7.42159E0,-2.0064163E0,1.5359529E1,7.858168E0,9E0,2.033167E0,-1.1730832E0,-1.7043333E0,3.8727503E0,1E-1,1.5683776E1,2.3999999E0,2.7047956E1,4.5935836E0,3.1260273E0,-8.691765E-1,7.083279E-1,9.983106E0,7.42159E0,2.8790452E0,1.0498333E0,9.178235E0,1.030883E1,8.618585E0,1.8310834E0,8.824255E1,1.9644169E0,7.6644173E0,8.119757E-1,-6.4808327E-1,-1.9327794E-1,-7.660115E-1,2.6644168E0,-3.4574428E0,8.714405E-1,1.5781081E1,1.5379206E1,1.5782622E1,1.3603615E2,2.5E0,2.9E0,1E-1,2.500324E2,4.912333E0,-1.7456619E0,4.9376166E-1,1.4179384E0,6.7130613E-1,-1.6048223E-1,-1.2213775E0,1.3865419E-1,2.6383517E0,-4.2912367E-1,-3.2608278E0,2.1707373E0,-2.188197E-1,-2.1554604E-1,6.808641E-1,9.067177E-1,2.4616957E0,-1.8168395E0,-4.418178E-1,1.6257393E0,2.0746687E-1,-2.8115103E-1,1.9022742E-1,-1.321744E0,-1.5901136E-1,1.11271866E-1,-9.888939E-1,4.637578E-2,-1.1363035E0,3.2399323E0,2.1114375E-1,-7.415456E-1,-1.8926455E0,1.9659495E0,-1.0045149E-1,-8.7437916E-1,2.1642338E-1,1.4153734E0,-3.3493897E-1,2.313115E0,-2.0824556E-1,1.7735473E0,-6.1613647E-3],"split_indices":[2,0,2,3,1,0,3,0,3,3,1,2,0,1,3,0,1,2,0,3,0,2,0,0,0,0,1,2,1,2,0,0,0,0,2,2,0,0,2,2,0,0,3,0,0,0,0,0,0,0,0,0,0,2,2,3,1,1,1,3,0,0,0,0,0,0,0,0,0,0,0,0,0,0,0,0,0,0,0,0,0,0,0,0,0,0,0,0,0,0,0,0,0,0,0,0,0,0,0,0,0,0,0],"split_type":[0,0,0,0,0,0,0,0,0,0,0,0,0,0,0,0,0,0,0,0,0,0,0,0,0,0,0,0,0,0,0,0,0,0,0,0,0,0,0,0,0,0,0,0,0,0,0,0,0,0,0,0,0,0,0,0,0,0,0,0,0,0,0,0,0,0,0,0,0,0,0,0,0,0,0,0,0,0,0,0,0,0,0,0,0,0,0,0,0,0,0,0,0,0,0,0,0,0,0,0,0,0,0],"sum_hessian":[2.396E3,1.49E2,2.247E3,2.4E1,1.25E2,2E1,2.227E3,8E0,1.6E1,9E1,3.5E1,9E0,1.1E1,1.337E3,8.9E2,1E0,7E0,6E0,1E1,1.1E1,7.9E1,1.6E1,1.9E1,6E0,3E0,6E0,5E0,9.42E2,3.95E2,5.4E1,8.36E2,6E0,1E0,2E0,4E0,9E0,1E0,3E0,8E0,3.2E1,4.7E1,6E0,1E1,3E0,1.6E1,4E0,2E0,2E0,1E0,2E0,4E0,1E0,4E0,4.28E2,5.14E2,2.3E1,3.72E2,4.9E1,5E0,4.06E2,4.3E2,3E0,1E0,2E0,7E0,1E0,2E0,3E0,5E0,2.6E1,6E0,6E0,4.1E1,2E0,4E0,6E0,4E0,2E0,1E0,4E0,1.2E1,1E0,1E0,1E0,1E0,2E0,2E0,3.95E2,3.3E1,8E0,5.06E2,1E1,1.3E1,1.4E1,3.58E2,4.2E1,7E0,2E0,3E0,5E0,4.01E2,1.6E1,4.14E2],"tree_param":{"num_deleted":"0","num_feature":"4","num_nodes":"103","size_leaf_vector":"1"}},{"base_weights":[2.3391483E-2,5.4752153E-1,-5.1852454E-2,1.7468166E0,-4.922861E-1,-1.8365356E0,1.5253266E-2,3.0707233E0,8.540449E-1,-2.0955155E0,7.197391E-1,-5.002498E0,-1.0409553E0,-3.533484E-2,1.3289917E0,1.5241767E-1,5.2546897E0,-2.8867452E0,1.2801887E0,-2.6827593E0,6.075206E0,1.8810749E0,-1.5528407E0,-3.5168147E-1,-2.708401E0,2.509654E0,-1.7720274E0,2.6967475E-2,-1.5495505E0,4.8092656E0,-2.0639119E-1,1.4887153E0,-7.2904974E-1,3.561829E-1,7.803613E0,-1.5516198E0,-8.8207406E-1,3.3583748E0,7.650619E-1,-4.434019E0,-1.5764675E0,9.042263E-1,2.766335E0,-1.8713689E0,3.3402507E0,-9.849001E-1,-1.58466E0,1.6608858E0,-1.891399E0,2.0963767E0,7.380475E-1,-8.35556E-1,-4.2541957E0,1.3991398E-1,-9.074908E-1,7.551838E0,-2.0205777E0,7.3661733E0,2.2757847E0,-3.9463496E0,4.4852313E-1,3.5713893E-1,-8.27036E-1,1.982989E0,-1.516525E0,3.018874E0,1.1019335E0,5.063908E-1,-1.2044322E0,1.2012297E0,-8.5226387E-1,-1.4183753E0,3.9603314E-1,-1.544413E0,7.55452E-1,2.5958017E-1,-8.1026256E-1,-1.3018942E-1,5.3709126E-1,1.5669278E0,-9.25386E-1,1.3376713E0,-1.0108277E0,-1.2729449E0,-1.3372508E-1,8.236733E-1,-2.389784E-1,-1.0256673E0,7.996769E-2,-7.5522083E-1,1.1537665E0,-2.5928793E0,-1.2079595E-1,7.822958E-1,-1.6845427E0,7.178339E-2,-3.0047742E-1,-3.971339E-1,4.294543E-1,2.6312976E0,5.841568E-1,5.774791E-1,-8.4458154E-1,-5.272632E-1,2.876685E0,4.0696833E-2,2.8092985E0,6.107214E-1,-1.5275261E0,1.0829743E0,-9.3609184E-2],"categories":[],"categories_nodes":[],"categories_segments":[],"categories_sizes":[],"default_left":[0,0,0,0,0,0,0,0,0,0,0,0,0,0,0,0,0,0,0,0,0,0,0,0,0,0,0,0,0,0,0,0,0,0,0,0,0,0,0,0,0,0,0,0,0,0,0,0,0,0,0,0,0,0,0,0,0,0,0,0,0,0,0,0,0,0,0,0,0,0,0,0,0,0,0,0,0,0,0,0,0,0,0,0,0,0,0,0,0,0,0,0,0,0,0,0,0,0,0,0,0,0,0,0,0,0,0,0,0,0,0],"id":14,"left_children":[1,3,5,7,9,11,13,15,17,19,21,23,25,27,29,31,33,35,37,39,41,43,45,47,-1,49,51,53,55,57,59,-1,61,63,65,-1,67,69,71,73,75,77,-1,79,81,83,-1,85,87,-1,89,91,93,95,97,99,101,103,105,107,109,-1,-1,-1,-1,-1,-1,-1,-1,-1,-1,-1,-1,-1,-1,-1,-1,-1,-1,-1,-1,-1,-1,-1,-1,-1,-1,-1,-1,-1,-1,-1,-1,-1,-1,-1,-1,-1,-1,-1,-1,-1,-1,-1,-1,-1,-1,-1,-1,-1,-1],"loss_changes":[9.456033E1,3.762178E2,2.5116986E2,1.6284995E2,3.1629926E2,1.8621967E2,1.3442815E2,3.56114E2,1.3919528E2,3.521727E2,2.4836923E2,2.7765326E2,1.6538374E2,1.8381444E2,4.0175903E2,1.0961355E2,3.967699E2,3.66697E1,7.986138E1,1.208786E2,7.299921E1,3.4573035E2,6.2575302E1,2.7931679E1,0E0,8.2113594E1,1.1731833E2,1.9770494E2,3.453581E2,1.3222736E2,1.315857E2,0E0,8.891171E1,4.3950427E2,1.5901062E2,0E0,5.508386E1,7.142027E1,1.9832016E2,1.3706448E2,1.17648186E2,4.334153E0,0E0,1.7104378E2,3.5278503E2,4.9052475E1,0E0,1.2849546E1,1.739265E1,0E0,1.0073843E2,1.2833344E2,1.4538281E2,1.8977203E2,1.985827E2,1.0252945E1,2.3744406E2,2.3993274E2,1.959448E2,6.518071E1,1.11729164E2,0E0,0E0,0E0,0E0,0E0,0E0,0E0,0E0,0E0,0E0,0E0,0E0,0E0,0E0,0E0,0E0,0E0,0E0,0E0,0E0,0E0,0E0,0E0,0E0,0E0,0E0,0E0,0E0,0E0,0E0,0E0,0E0,0E0,0E0,0E0,0E0,0E0,0E0,0E0,0E0,0E0,0E0,0E0,0E0,0E0,0E0,0E0,0E0,0E0,0E0],"parents":[2147483647,0,0,1,1,2,2,3,3,4,4,5,5,6,6,7,7,8,8,9,9,10,10,11,11,12,12,13,13,14,14,15,15,16,16,17,17,18,18,19,19,20,20,21,21,22,22,23,23,25,25,26,26,27,27,28,28,29,29,30,30,32,32,33,33,34,34,36,36,37,37,38,38,39,39,40,40,41,41,43,43,44,44,45,45,47,47,48,48,50,50,51,51,52,52,53,53,54,54,55,55,56,56,57,57,58,58,59,59,60,60],"right_children":[2,4,6,8,10,12,14,16,18,20,22,24,26,28,30,32,34,36,38,40,42,44,46,48,-1,50,52,54,56,58,60,-1,62,64,66,-1,68,70,72,74,76,78,-1,80,82,84,-1,86,88,-1,90,92,94,96,98,100,102,104,106,108,110,-1,-1,-1,-1,-1,-1,-1,-1,-1,-1,-1,-1,-1,-1,-1,-1,-1,-1,-1,-1,-1,-1,-1,-1,-1,-1,-1,-1,-1,-1,-1,-1,-1,-1,-1,-1,-1,-1,-1,-1,-1,-1,-1,-1,-1,-1,-1,-1,-1,-1],"split_conditions":[-1.2480834E0,1.5315873E1,-4.230834E-1,2.3922253E2,1.8043148E1,1.375558E1,2.9179993E1,5.5599094E1,2.6185944E2,3.445175E2,2.2314194E1,1.1753877E1,1.4917212E1,2.6564486E1,2.8290002E0,9E0,1.1753877E1,1.2031756E1,-8.495997E0,-4.1085E0,-4.8980837E0,-4.696E0,3.0631746E1,1.0739833E1,-2.708401E0,1.2928316E2,-6.4808327E-1,3.0780145E2,1.24833286E-1,2.349115E2,1.94278E2,1.4887153E0,2.635691E1,1.030883E1,1.620084E2,-1.5516198E0,2.52216E2,3.3234738E2,-7.212666E0,3.154291E2,1.6071491E1,-8.495997E0,2.766335E0,-7.7835E0,3.154291E2,2.2702845E1,-1.58466E0,-7.3558325E-1,-9.939166E-1,2.0963767E0,2.7609E2,1.50038395E1,1.0787098E2,6.9999995E0,1.5568584E1,-1.0016668E-1,1.7792374E2,6.582336E1,3.1725534E2,3E-1,2.0601141E2,3.5713893E-1,-8.27036E-1,1.982989E0,-1.516525E0,3.018874E0,1.1019335E0,5.063908E-1,-1.2044322E0,1.2012297E0,-8.5226387E-1,-1.4183753E0,3.9603314E-1,-1.544413E0,7.55452E-1,2.5958017E-1,-8.1026256E-1,-1.3018942E-1,5.3709126E-1,1.5669278E0,-9.25386E-1,1.3376713E0,-1.0108277E0,-1.2729449E0,-1.3372508E-1,8.236733E-1,-2.389784E-1,-1.0256673E0,7.996769E-2,-7.5522083E-1,1.1537665E0,-2.5928793E0,-1.2079595E-1,7.822958E-1,-1.6845427E0,7.178339E-2,-3.0047742E-1,-3.971339E-1,4.294543E-1,2.6312976E0,5.841568E-1,5.774791E-1,-8.4458154E-1,-5.272632E-1,2.876685E0,4.0696833E-2,2.8092985E0,6.107214E-1,-1.5275261E0,1.0829743E0,-9.3609184E-2],"split_indices":[0,2,0,3,2,2,2,3,3,3,2,2,2,2,0,2,2,2,0,0,0,0,2,2,0,3,0,3,0,3,3,0,3,2,3,0,3,3,0,3,2,0,0,0,3,2,0,0,0,0,3,2,3,1,0,0,3,3,3,1,3,0,0,0,0,0,0,0,0,0,0,0,0,0,0,0,0,0,0,0,0,0,0,0,0,0,0,0,0,0,0,0,0,0,0,0,0,0,0,0,0,0,0,0,0,0,0,0,0,0,0],"split_type":[0,0,0,0,0,0,0,0,0,0,0,0,0,0,0,0,0,0,0,0,0,0,0,0,0,0,0,0,0,0,0,0,0,0,0,0,0,0,0,0,0,0,0,0,0,0,0,0,0,0,0,0,0,0,0,0,0,0,0,0,0,0,0,0,0,0,0,0,0,0,0,0,0,0,0,0,0,0,0,0,0,0,0,0,0,0,0,0,0,0,0,0,0,0,0,0,0,0,0,0,0,0,0,0,0,0,0,0,0,0,0],"sum_hessian":[2.396E3,3E2,2.096E3,1.39E2,1.61E2,7.5E1,2.021E3,5.5E1,8.4E1,6.9E1,9.2E1,1.4E1,6.1E1,1.947E3,7.4E1,2.4E1,3.1E1,8E0,7.6E1,6.5E1,4E0,6.1E1,3.1E1,7E0,7E0,1E1,5.1E1,1.871E3,7.6E1,2.2E1,5.2E1,3E0,2.1E1,1.1E1,2E1,3E0,5E0,1.4E1,6.2E1,2.4E1,4.1E1,2E0,2E0,1.7E1,4.4E1,2.8E1,3E0,3E0,4E0,2E0,8E0,3.8E1,1.3E1,1.67E3,2.01E2,3E0,7.3E1,1E1,1.2E1,7E0,4.5E1,1.1E1,1E1,5E0,6E0,1.2E1,8E0,3E0,2E0,1.3E1,1E0,5E0,5.7E1,2.2E1,2E0,1.3E1,2.8E1,1E0,1E0,2E0,1.5E1,3.8E1,6E0,3E0,2.5E1,2E0,1E0,2E0,2E0,4E0,4E0,1E0,3.7E1,2E0,1.1E1,1.537E3,1.33E2,1.71E2,3E1,2E0,1E0,1.2E1,6.1E1,2E0,8E0,1E1,2E0,1E0,6E0,8E0,3.7E1],"tree_param":{"num_deleted":"0","num_feature":"4","num_nodes":"111","size_leaf_vector":"1"}},{"base_weights":[1.9013619E-2,1.5813684E-1,-2.3299623E-1,5.185426E-2,8.259591E0,8.375904E-1,-4.4799045E-1,-7.7654564E-1,2.4933821E-1,1.2069422E1,-2.6415844E0,2.3507692E-2,4.500058E0,-9.78652E-1,1.9978729E-1,1.0087221E0,-1.4258956E0,1.4901263E0,5.0857652E-2,9.968658E-1,1.9340363E1,-1.448631E0,-3.4079885E-1,1.8463994E0,-1.0462356E0,1.580589E1,1.0555321E0,-6.934526E-1,-3.4639401E0,-5.969027E-1,1.2340573E0,-2.3961878E0,1.8441882E0,2.0815837E-1,-2.2789109E0,-8.725387E0,1.7258863E0,-2.2713573E0,1.8212293E-1,-1.8294959E0,2.6932554E0,9.336803E0,8.2620945E0,3.3218423E-1,-3.577757E-1,-2.299583E0,5.3972006E0,7.484956E-1,-5.4039288E0,2.5277507E0,6.543907E0,-2.6580247E-1,4.1223335E0,-2.1321912E0,-1.1406353E-1,-7.6814675E0,-1.5993104E0,3.361132E0,-7.9026455E-1,1.7968342E0,-2.178061E-1,-1.5826513E0,1.2883441E-1,8.236679E-1,-3.8499865E-1,-4.2763075E-1,7.71837E-1,-9.242976E-1,-1.0818242E-1,1.0081101E-1,-3.557362E0,7.0473415E-1,-6.25617E-1,-1.8823645E0,7.1439065E-2,2.8164122E-1,-2.22076E-2,-1.5419681E0,2.208374E0,2.0830037E-1,4.679523E0,6.748488E-2,-1.3845189E0,-9.7566515E-1,2.5383058E0,1.8362455E-3,2.005942E0,-2.326613E0,6.477486E-1,1.7985644E0,-6.6107655E-1,-4.265559E-1,1.4141588E0,-3.6383128E-1,-1.2507539E0,3.380754E0,-1.3125399E-1,9.475065E-1,-3.4937012E0,-1.2069159E0,1.0446504E-1,-5.4266495E-1,-8.548904E-3,3.9521E-1,2.1617925E0,-6.1216336E-1,8.8683826E-1],"categories":[],"categories_nodes":[],"categories_segments":[],"categories_sizes":[],"default_left":[0,0,0,0,0,0,0,0,0,0,0,0,0,0,0,0,0,0,0,0,0,0,0,0,0,0,0,0,0,0,0,0,0,0,0,0,0,0,0,0,0,0,0,0,0,0,0,0,0,0,0,0,0,0,0,0,0,0,0,0,0,0,0,0,0,0,0,0,0,0,0,0,0,0,0,0,0,0,0,0,0,0,0,0,0,0,0,0,0,0,0,0,0,0,0,0,0,0,0,0,0,0,0,0,0,0,0],"id":15,"left_children":[1,3,5,7,9,11,13,15,17,19,21,23,25,27,29,31,33,35,37,39,41,-1,43,45,47,49,51,53,55,57,59,61,63,65,67,69,71,73,75,77,-1,-1,79,-1,-1,81,83,85,87,89,-1,91,-1,93,95,97,99,-1,101,103,105,-1,-1,-1,-1,-1,-1,-1,-1,-1,-1,-1,-1,-1,-1,-1,-1,-1,-1,-1,-1,-1,-1,-1,-1,-1,-1,-1,-1,-1,-1,-1,-1,-1,-1,-1,-1,-1,-1,-1,-1,-1,-1,-1,-1,-1,-1],"loss_changes":[8.407668E1,1.3298838E3,1.9671019E2,2.4984064E2,8.6251526E2,4.2625604E2,2.4460233E2,3.4226178E2,3.03578E2,1.1883389E3,2.854784E1,2.3203487E2,9.958405E2,2.7473975E2,2.6523822E2,2.2914929E2,3.0155087E2,4.2448862E2,3.2474872E2,1.7431781E2,9.1761035E2,0E0,6.2543473E0,6.6016003E2,5.906114E2,4.2344336E2,3.5565222E2,2.9318024E2,3.022801E2,4.241415E2,1.1478192E2,1.3243996E2,1.839429E2,2.9338098E2,2.1737506E2,1.17523834E2,4.015726E2,5.741137E2,1.954426E2,2.2038608E2,0E0,0E0,3.222863E2,0E0,0E0,1.23793755E2,6.635229E2,2.3800214E2,4.0799774E2,6.2428223E1,0E0,1.21837296E2,0E0,1.8410141E2,9.3277094E2,5.5243604E2,1.382897E2,0E0,1.3961966E2,2.5245135E2,2.3744211E2,0E0,0E0,0E0,0E0,0E0,0E0,0E0,0E0,0E0,0E0,0E0,0E0,0E0,0E0,0E0,0E0,0E0,0E0,0E0,0E0,0E0,0E0,0E0,0E0,0E0,0E0,0E0,0E0,0E0,0E0,0E0,0E0,0E0,0E0,0E0,0E0,0E0,0E0,0E0,0E0,0E0,0E0,0E0,0E0,0E0,0E0],"parents":[2147483647,0,0,1,1,2,2,3,3,4,4,5,5,6,6,7,7,8,8,9,9,10,10,11,11,12,12,13,13,14,14,15,15,16,16,17,17,18,18,19,19,20,20,22,22,23,23,24,24,25,25,26,26,27,27,28,28,29,29,30,30,31,31,32,32,33,33,34,34,35,35,36,36,37,37,38,38,39,39,42,42,45,45,46,46,47,47,48,48,49,49,51,51,53,53,54,54,55,55,56,56,58,58,59,59,60,60],"right_children":[2,4,6,8,10,12,14,16,18,20,22,24,26,28,30,32,34,36,38,40,42,-1,44,46,48,50,52,54,56,58,60,62,64,66,68,70,72,74,76,78,-1,-1,80,-1,-1,82,84,86,88,90,-1,92,-1,94,96,98,100,-1,102,104,106,-1,-1,-1,-1,-1,-1,-1,-1,-1,-1,-1,-1,-1,-1,-1,-1,-1,-1,-1,-1,-1,-1,-1,-1,-1,-1,-1,-1,-1,-1,-1,-1,-1,-1,-1,-1,-1,-1,-1,-1,-1,-1,-1,-1,-1,-1],"split_conditions":[1.1351916E1,1.1147748E1,1.0640259E2,1.0640259E2,2.1897945E1,8.824255E1,1.6424831E1,-1.2480834E0,1.6930354E2,1.5226764E1,1.5E0,1.4145756E1,1.46102495E1,1.59852495E1,3E-1,-6.2709994E0,4.198713E1,-3.9543335E0,1.8574455E2,1.94278E2,1.2397658E2,-1.448631E0,2.7E0,5.163249E1,6.582336E1,1.3566499E1,3.4E0,1.50038395E1,1.7562022E2,1.6524832E1,1.9083395E1,3E-1,1.9000001E0,2.4164106E1,1.6992609E1,-4.696E0,8.326917E0,7E-1,1.4917212E1,3E-1,2.6932554E0,9.336803E0,1.98E1,3.3218423E-1,-3.577757E-1,1.6206081E1,1.1165805E1,6.1864044E1,1.8043148E1,1.2356082E1,6.543907E0,1.0356005E2,4.1223335E0,1.1000001E0,1.5141414E1,1.3603615E2,1.6206081E1,3.361132E0,2.0048473E2,1.7935081E1,2.2183128E1,-1.5826513E0,1.2883441E-1,8.236679E-1,-3.8499865E-1,-4.2763075E-1,7.71837E-1,-9.242976E-1,-1.0818242E-1,1.0081101E-1,-3.557362E0,7.0473415E-1,-6.25617E-1,-1.8823645E0,7.1439065E-2,2.8164122E-1,-2.22076E-2,-1.5419681E0,2.208374E0,2.0830037E-1,4.679523E0,6.748488E-2,-1.3845189E0,-9.7566515E-1,2.5383058E0,1.8362455E-3,2.005942E0,-2.326613E0,6.477486E-1,1.7985644E0,-6.6107655E-1,-4.265559E-1,1.4141588E0,-3.6383128E-1,-1.2507539E0,3.380754E0,-1.3125399E-1,9.475065E-1,-3.4937012E0,-1.2069159E0,1.0446504E-1,-5.4266495E-1,-8.548904E-3,3.9521E-1,2.1617925E0,-6.1216336E-1,8.8683826E-1],"split_indices":[0,0,3,3,2,3,0,0,3,2,1,2,0,0,1,0,3,0,3,3,3,0,1,3,3,0,1,2,3,0,2,1,1,3,2,0,0,1,2,1,0,0,2,0,0,0,2,3,2,0,0,3,0,1,2,3,0,0,3,2,2,0,0,0,0,0,0,0,0,0,0,0,0,0,0,0,0,0,0,0,0,0,0,0,0,0,0,0,0,0,0,0,0,0,0,0,0,0,0,0,0,0,0,0,0,0,0],"split_type":[0,0,0,0,0,0,0,0,0,0,0,0,0,0,0,0,0,0,0,0,0,0,0,0,0,0,0,0,0,0,0,0,0,0,0,0,0,0,0,0,0,0,0,0,0,0,0,0,0,0,0,0,0,0,0,0,0,0,0,0,0,0,0,0,0,0,0,0,0,0,0,0,0,0,0,0,0,0,0,0,0,0,0,0,0,0,0,0,0,0,0,0,0,0,0,0,0,0,0,0,0,0,0,0,0,0,0],"sum_hessian":[2.396E3,1.544E3,8.52E2,1.525E3,1.9E1,1.42E2,7.1E2,2.93E2,1.232E3,1.4E1,5E0,1.17E2,2.5E1,3.9E2,3.2E2,7.8E1,2.15E2,1.69E2,1.063E3,6E0,8E0,2E0,3E0,4.3E1,7.4E1,5E0,2E1,3.51E2,3.9E1,1.81E2,1.39E2,1.5E1,6.3E1,7.4E1,1.41E2,3E0,1.66E2,5.6E1,1.007E3,5E0,1E0,3E0,5E0,1E0,2E0,2E1,2.3E1,5.3E1,2.1E1,2E0,3E0,1.9E1,1E0,1E2,2.51E2,1.1E1,2.8E1,2E0,1.79E2,1E2,3.9E1,7E0,8E0,4.9E1,1.4E1,4.4E1,3E1,9.9E1,4.2E1,1E0,2E0,1.43E2,2.3E1,2.1E1,3.5E1,2.54E2,7.53E2,4E0,1E0,3E0,2E0,1E1,1E1,6E0,1.7E1,4.8E1,5E0,1.6E1,5E0,1E0,1E0,1.6E1,3E0,7E1,3E1,6E0,2.45E2,3E0,8E0,1.2E1,1.6E1,7.6E1,1.03E2,9.3E1,7E0,2.5E1,1.4E1],"tree_param":{"num_deleted":"0","num_feature":"4","num_nodes":"107","size_leaf_vector":"1"}},{"base_weights":[2.4352906E-2,4.1330492E-1,-6.972526E-2,1.2928098E-1,2.1997483E0,-4.5556693E0,-2.0392688E-2,4.784384E-1,-1.359718E0,2.9565134E0,-3.4671726E0,-2.311778E0,-7.2906604E0,-3.8881528E-1,2.0265776E-1,1.567927E-1,2.928977E0,-3.4231796E0,-3.0183873E-1,-2.088361E0,3.7045631E0,-1.5966733E-1,-4.543063E0,9.3563044E-1,-3.8590295E0,-2.8683054E0,-6.187377E-1,-5.8489746E-1,1.6684386E0,7.248237E-1,-2.2285435E-1,3.727701E-1,-2.7883396E0,3.4298053E0,-4.057289E0,1.2815876E0,-4.8986893E0,5.257261E0,-1.9215304E0,-9.3549603E-1,-2.7882195E-1,1.0171748E1,2.5914981E0,-3.952575E-1,3.2340717E-1,-1.8947357E0,-1.9952375E-1,7.789898E-2,6.5498346E-1,-4.6777987E0,-6.622245E-1,-7.8387594E-1,1.2772284E0,3.0365038E0,-1.6595285E0,5.096626E-1,5.492338E0,-4.7487578E-1,1.4337789E0,7.1178275E-1,4.552808E-2,-2.5351439E0,2.7316254E-1,1.6869627E0,4.7859493E-1,-1.6035577E0,-2.2222252E-1,-1.0574985E0,1.730332E0,-1.97811E0,-6.2831295E-1,-5.7505345E-1,3.1966374E0,-9.070124E-1,9.004495E-1,9.586144E-3,-1.1791954E-1,7.072742E-1,4.632894E0,-1.1829057E0,1.2459424E0,8.568936E-2,-2.5966646E-2,-4.303551E-3,-1.6357952E0,1.5061484E-1,-4.4861585E-1,-2.0079905E-1,-1.3274652E0,2.3571563E-1,1.3858742E0,1.9515078E0,4.2724043E-1,-1.3014095E0,7.9330206E-2,-4.430001E-1,2.575471E-1,3.9227817E0,4.071801E-1,-5.3880185E-1,-7.39485E-2,1.4777498E0,-1.7618516E-1],"categories":[],"categories_nodes":[],"categories_segments":[],"categories_sizes":[],"default_left":[0,0,0,0,0,0,0,0,0,0,0,0,0,0,0,0,0,0,0,0,0,0,0,0,0,0,0,0,0,0,0,0,0,0,0,0,0,0,0,0,0,0,0,0,0,0,0,0,0,0,0,0,0,0,0,0,0,0,0,0,0,0,0,0,0,0,0,0,0,0,0,0,0,0,0,0,0,0,0,0,0,0,0,0,0,0,0,0,0,0,0,0,0,0,0,0,0,0,0,0,0,0,0],"id":16,"left_children":[1,3,5,7,9,11,13,15,17,19,21,23,25,27,29,31,33,35,37,39,41,43,45,47,49,-1,-1,51,53,55,57,59,61,63,65,67,69,71,73,-1,75,77,79,-1,-1,-1,-1,81,-1,83,85,87,89,91,93,95,97,99,101,-1,-1,-1,-1,-1,-1,-1,-1,-1,-1,-1,-1,-1,-1,-1,-1,-1,-1,-1,-1,-1,-1,-1,-1,-1,-1,-1,-1,-1,-1,-1,-1,-1,-1,-1,-1,-1,-1,-1,-1,-1,-1,-1,-1],"loss_changes":[8.773958E1,2.36668E2,4.272435E2,2.1068814E2,2.8471655E2,1.1202304E2,1.5711871E2,2.5807205E2,1.6704953E2,2.2284402E2,2.7742737E1,6.892988E1,8.710977E1,2.918207E2,2.647874E2,1.8613928E2,1.468747E2,1.8676825E2,4.783114E2,1.4040554E1,3.335598E2,5.719534E0,3.7047035E1,5.180658E0,2.0459259E1,0E0,0E0,2.4517574E2,2.9187036E2,5.45995E2,2.74983E2,1.1985961E2,4.2656622E2,1.358851E2,8.854767E0,1.7127391E2,8.125708E1,4.8515164E2,2.3147545E2,0E0,1.54576E-1,2.5192383E2,4.6537762E2,0E0,0E0,0E0,0E0,1.6137289E-1,0E0,2.5216171E1,3.660843E0,2.4560739E2,1.01509384E2,2.4240018E2,9.906056E1,3.5671863E2,7.035032E2,1.7183984E2,6.169093E2,0E0,0E0,0E0,0E0,0E0,0E0,0E0,0E0,0E0,0E0,0E0,0E0,0E0,0E0,0E0,0E0,0E0,0E0,0E0,0E0,0E0,0E0,0E0,0E0,0E0,0E0,0E0,0E0,0E0,0E0,0E0,0E0,0E0,0E0,0E0,0E0,0E0,0E0,0E0,0E0,0E0,0E0,0E0,0E0],"parents":[2147483647,0,0,1,1,2,2,3,3,4,4,5,5,6,6,7,7,8,8,9,9,10,10,11,11,12,12,13,13,14,14,15,15,16,16,17,17,18,18,19,19,20,20,21,21,22,22,23,23,24,24,27,27,28,28,29,29,30,30,31,31,32,32,33,33,34,34,35,35,36,36,37,37,38,38,40,40,41,41,42,42,47,47,49,49,50,50,51,51,52,52,53,53,54,54,55,55,56,56,57,57,58,58],"right_children":[2,4,6,8,10,12,14,16,18,20,22,24,26,28,30,32,34,36,38,40,42,44,46,48,50,-1,-1,52,54,56,58,60,62,64,66,68,70,72,74,-1,76,78,80,-1,-1,-1,-1,82,-1,84,86,88,90,92,94,96,98,100,102,-1,-1,-1,-1,-1,-1,-1,-1,-1,-1,-1,-1,-1,-1,-1,-1,-1,-1,-1,-1,-1,-1,-1,-1,-1,-1,-1,-1,-1,-1,-1,-1,-1,-1,-1,-1,-1,-1,-1,-1,-1,-1,-1,-1],"split_conditions":[1.3104198E1,1.2758432E1,1.3237039E1,1.2303366E1,3.090912E2,1.4993584E1,4.0519166E0,1.2031756E1,1.2429127E1,6.582336E1,-4.8980837E0,1E-1,1.964286E2,3.355641E2,1.1464417E1,1.1901798E1,3.2336578E2,8.9873795E1,1.2522619E1,2.1960606E1,-1.9391637E-1,-7.7835E0,1.7554E1,4.1185837E0,1.0364417E1,-2.8683054E0,-6.187377E-1,2.7322077E1,8.000001E-1,1.1147748E1,4.7E0,-3.5314167E0,1.6593633E2,5.797751E0,-7.7835E0,1E-1,1.3781082E1,1.7373334E0,1.8991499E1,-9.3549603E-1,-4.696E0,1.288981E1,3.3331664E0,-3.952575E-1,3.2340717E-1,-1.8947357E0,-1.9952375E-1,-4.696E0,6.5498346E-1,-6.2709994E0,1.4045666E1,3.7435834E0,3.4019172E0,3.4182187E2,1.3000001E0,1.2150419E2,1.839839E2,1.296025E1,6.7999997E0,7.1178275E-1,4.552808E-2,-2.5351439E0,2.7316254E-1,1.6869627E0,4.7859493E-1,-1.6035577E0,-2.2222252E-1,-1.0574985E0,1.730332E0,-1.97811E0,-6.2831295E-1,-5.7505345E-1,3.1966374E0,-9.070124E-1,9.004495E-1,9.586144E-3,-1.1791954E-1,7.072742E-1,4.632894E0,-1.1829057E0,1.2459424E0,8.568936E-2,-2.5966646E-2,-4.303551E-3,-1.6357952E0,1.5061484E-1,-4.4861585E-1,-2.0079905E-1,-1.3274652E0,2.3571563E-1,1.3858742E0,1.9515078E0,4.2724043E-1,-1.3014095E0,7.9330206E-2,-4.430001E-1,2.575471E-1,3.9227817E0,4.071801E-1,-5.3880185E-1,-7.39485E-2,1.4777498E0,-1.7618516E-1],"split_indices":[2,2,2,2,3,0,0,2,2,3,0,1,3,3,0,2,3,3,2,3,0,0,0,0,0,0,0,2,1,0,1,0,3,0,0,1,0,0,0,0,0,2,0,0,0,0,0,0,0,0,0,0,0,3,1,3,